,scene,split,seq,img_path,t1,t2,t3,q1,q2,q3,q4,class_location,cent_location_1,cent_location_2,cent_location_3,class_weights,cent_weights_1,cent_weights_2,cent_weights_3,cent_weights_4,cent_weights_5,cent_weights_6,cent_weights_7,cent_weights_8,cent_weights_9,cent_weights_10,cent_weights_11,cent_weights_12,cent_weights_13,cent_weights_14,cent_weights_15,cent_weights_16,cent_weights_17,cent_weights_18,cent_weights_19,cent_weights_20,cent_weights_21,cent_weights_22,cent_weights_23,cent_weights_24,cent_weights_25,cent_weights_26,cent_weights_27,cent_weights_28,cent_weights_29,cent_weights_30,cent_weights_31,cent_weights_32,cent_weights_33,cent_weights_34,cent_weights_35,cent_weights_36,cent_weights_37,cent_weights_38,cent_weights_39,cent_weights_40,cent_weights_41,cent_weights_42,cent_weights_43,cent_weights_44,cent_weights_45,cent_weights_46,cent_weights_47,cent_weights_48,cent_weights_49,cent_weights_50,cent_weights_51,cent_weights_52,cent_weights_53,cent_weights_54,cent_weights_55,cent_weights_56,cent_weights_57,cent_weights_58,cent_weights_59,cent_weights_60,cent_weights_61,cent_weights_62,cent_weights_63,cent_weights_64,cent_weights_65,cent_weights_66,cent_weights_67,cent_weights_68,cent_weights_69,cent_weights_70,cent_weights_71,cent_weights_72,cent_weights_73,cent_weights_74,cent_weights_75,cent_weights_76,cent_weights_77,cent_weights_78,cent_weights_79,cent_weights_80,cent_weights_81,cent_weights_82,cent_weights_83,cent_weights_84,cent_weights_85,cent_weights_86,cent_weights_87,cent_weights_88,cent_weights_89,cent_weights_90,cent_weights_91,cent_weights_92,cent_weights_93,cent_weights_94,cent_weights_95,cent_weights_96,cent_weights_97,cent_weights_98,cent_weights_99,cent_weights_100,cent_weights_101,cent_weights_102,cent_weights_103,cent_weights_104,cent_weights_105,cent_weights_106,cent_weights_107,cent_weights_108,cent_weights_109,cent_weights_110,cent_weights_111,cent_weights_112,cent_weights_113,cent_weights_114,cent_weights_115,cent_weights_116,cent_weights_117,cent_weights_118,cent_weights_119,cent_weights_120,cent_weights_121,cent_weights_122,cent_weights_123,cent_weights_124,cent_weights_125,cent_weights_126,cent_weights_127,cent_weights_128,cent_weights_129,cent_weights_130,cent_weights_131,cent_weights_132,cent_weights_133,cent_weights_134,cent_weights_135,cent_weights_136,cent_weights_137,cent_weights_138,cent_weights_139,cent_weights_140,cent_weights_141,cent_weights_142,cent_weights_143,cent_weights_144,cent_weights_145,cent_weights_146,cent_weights_147,cent_weights_148,cent_weights_149,cent_weights_150,cent_weights_151,cent_weights_152,cent_weights_153,cent_weights_154,cent_weights_155,cent_weights_156,cent_weights_157,cent_weights_158,cent_weights_159,cent_weights_160,cent_weights_161,cent_weights_162,cent_weights_163,cent_weights_164,cent_weights_165,cent_weights_166,cent_weights_167,cent_weights_168,cent_weights_169,cent_weights_170,cent_weights_171,cent_weights_172,cent_weights_173,cent_weights_174,cent_weights_175,cent_weights_176,cent_weights_177,cent_weights_178,cent_weights_179,cent_weights_180,cent_weights_181,cent_weights_182,cent_weights_183,cent_weights_184,cent_weights_185,cent_weights_186,cent_weights_187,cent_weights_188,cent_weights_189,cent_weights_190,cent_weights_191,cent_weights_192,cent_weights_193,cent_weights_194,cent_weights_195,cent_weights_196,cent_weights_197,cent_weights_198,cent_weights_199,cent_weights_200,cent_weights_201,cent_weights_202,cent_weights_203,cent_weights_204,cent_weights_205,cent_weights_206,cent_weights_207,cent_weights_208,cent_weights_209,cent_weights_210,cent_weights_211,cent_weights_212,cent_weights_213,cent_weights_214,cent_weights_215,cent_weights_216,cent_weights_217,cent_weights_218,cent_weights_219,cent_weights_220,cent_weights_221,cent_weights_222,cent_weights_223,cent_weights_224,cent_weights_225,cent_weights_226,cent_weights_227,cent_weights_228,cent_weights_229,cent_weights_230,cent_weights_231,cent_weights_232,cent_weights_233,cent_weights_234,cent_weights_235,cent_weights_236,cent_weights_237,cent_weights_238,cent_weights_239,cent_weights_240,cent_weights_241,cent_weights_242,cent_weights_243,cent_weights_244,cent_weights_245,cent_weights_246,cent_weights_247,cent_weights_248,cent_weights_249,cent_weights_250,cent_weights_251,cent_weights_252,cent_weights_253,cent_weights_254,cent_weights_255,cent_weights_256,cent_weights_257,cent_weights_258,cent_weights_259,cent_weights_260,cent_weights_261,cent_weights_262,cent_weights_263,cent_weights_264,cent_weights_265,cent_weights_266,cent_weights_267,cent_weights_268,cent_weights_269,cent_weights_270,cent_weights_271,cent_weights_272,cent_weights_273,cent_weights_274,cent_weights_275,cent_weights_276,cent_weights_277,cent_weights_278,cent_weights_279,cent_weights_280,cent_weights_281,cent_weights_282,cent_weights_283,cent_weights_284,cent_weights_285,cent_weights_286,cent_weights_287,cent_weights_288,cent_weights_289,cent_weights_290,cent_weights_291,cent_weights_292,cent_weights_293,cent_weights_294,cent_weights_295,cent_weights_296,cent_weights_297,cent_weights_298,cent_weights_299,cent_weights_300,cent_weights_301,cent_weights_302,cent_weights_303,cent_weights_304,cent_weights_305,cent_weights_306,cent_weights_307,cent_weights_308,cent_weights_309,cent_weights_310,cent_weights_311,cent_weights_312,cent_weights_313,cent_weights_314,cent_weights_315,cent_weights_316,cent_weights_317,cent_weights_318,cent_weights_319,cent_weights_320,cent_weights_321,cent_weights_322,cent_weights_323,cent_weights_324,cent_weights_325,cent_weights_326,cent_weights_327,cent_weights_328,cent_weights_329,cent_weights_330,cent_weights_331,cent_weights_332,cent_weights_333,cent_weights_334,cent_weights_335,cent_weights_336,cent_weights_337,cent_weights_338,cent_weights_339,cent_weights_340,cent_weights_341,cent_weights_342,cent_weights_343,cent_weights_344,cent_weights_345,cent_weights_346,cent_weights_347,cent_weights_348,cent_weights_349,cent_weights_350,cent_weights_351,cent_weights_352,cent_weights_353,cent_weights_354,cent_weights_355,cent_weights_356,cent_weights_357,cent_weights_358,cent_weights_359,cent_weights_360,cent_weights_361,cent_weights_362,cent_weights_363,cent_weights_364,cent_weights_365,cent_weights_366,cent_weights_367,cent_weights_368,cent_weights_369,cent_weights_370,cent_weights_371,cent_weights_372,cent_weights_373,cent_weights_374,cent_weights_375,cent_weights_376,cent_weights_377,cent_weights_378,cent_weights_379,cent_weights_380,cent_weights_381,cent_weights_382,cent_weights_383,cent_weights_384,cent_weights_385,cent_weights_386,cent_weights_387
0,ShopFacade,test,seq3,ShopFacade/seq3/frame00001.png,-12.561518,-7.815853999999999,1.968957,0.6368199999999999,0.6207630000000001,-0.332124,0.314337,1,-0.1064741914189667,-0.07184228102326146,0.10113443486516223,3,0.007510909172597988,0.08366779975650082,0.10255689797305725,-0.22826327618289413,0.011296181583909154,-0.022231831701720335,0.06488980950409141,-0.10406333867367386,0.1465827368274913,0.07178396817890616,0.08927880192017891,0.10801674625461233,-0.14112698086539538,-0.09705752466119913,-0.09877519149292668,-0.15597410221048713,0.08683646250327999,0.09147649105698746,-0.09439181765013552,-0.054592655365294826,-0.04184390685254487,-0.1807455730444734,-0.056849130135993894,0.11019395467187469,-0.09629330651832504,-0.15517294708943138,-0.0721074175808442,-0.12508934854964815,-0.09816938027767301,-0.09870056375083495,-0.09676103276527091,-0.11061424446225568,-0.10212108817831009,0.04325116024597138,-0.10854321526143065,0.09925205044743454,0.1372229255873683,0.12752168728794708,-0.07133627084497463,-0.01835875835692912,-0.005218490909852431,-0.1236396261065971,0.11677939745279005,-0.09661828931660472,0.13449950639480832,-0.09957444344926925,0.09673617976653591,-0.09079609434561373,-0.11523028650664305,-0.16006618284022017,-0.04231753076555098,-0.15410124344288958,-0.07937028660213778,-0.10400493821947607,0.08905213234888662,0.07006246980754968,0.18125714226057432,0.00982705981091902,-0.09322360102394883,0.14646977834192673,0.153067689963736,-0.10252589744570992,0.07502542630878088,-0.10415421288796878,0.09625544022651723,-0.06796480799880392,0.03508765102674728,0.08310972550337156,0.12930798068629604,-0.043303630926998335,-0.12212716869219638,0.09535531500258185,-0.08007475986011646,0.13603768631911112,0.15157716715728162,0.0681316614514135,-0.059693395684479324,-0.10332222423448649,-0.007848022584607725,-0.09870585006760957,-0.09859148082966314,-0.11140181500162352,-0.1527657943501188,-0.07161571227714225,0.09198823151595646,-0.00749276123949281,0.18601404361508256,-0.1402944770463837,-0.03774637243277248,0.17743636135446267,-0.10221874259289858,-0.14681636133623377,-0.080952097693686,0.00998021325509597,-0.006719917304636823,0.0971541167282712,-0.07328103927256044,0.06878961842209634,0.10472634688957252,0.11125986782456151,-0.09396084687493025,0.10263841904031346,-0.09438000781580096,0.180118165957098,0.05529706592041424,-0.05200682928133351,0.13873069783222697,0.15361069017766654,0.1275695494304922,-0.06872292373566172,-0.08941764337868374,-0.1754233598474863,-0.09994431410595392,-0.09787604298695393,-0.09516237092097288,0.0932019570196979,0.09412994544881495,-0.15058854376183287,0.07497962278143382,0.15234508717636364,-0.11938422392485819,-0.10584845084412195,0.08642172483209397,-0.09928114828543752,-0.09847579556966396,-0.06913851115360276,-0.11326706454983568,-0.03100189202943694,-0.08472631801650247,-0.06834159283689092,-0.11710158402827786,0.0021894366079007388,-0.10708905603096208,-0.0726807781632253,0.116109154137006,-0.10227799744838846,0.05009086217733263,0.12436959059348622,-0.1238060430331378,0.13149964069891878,-0.1173907338110662,0.08741292309912224,0.15209104316214583,0.1024432286886026,-0.0040921735254227706,0.07751942597261906,-0.013508490940822317,-0.10637558484954786,0.021590369656492917,0.14620208784901004,-0.11301186241207843,-0.1049606693446083,-0.09145261195815742,-0.08502359673752354,-0.14933956814574878,-0.08260288774670485,-0.12238674904162802,-0.1140379193068227,0.15103483207282328,0.06275257612985537,-0.10472657520821449,0.15866582263945891,0.14726803302809133,0.061750921600929834,0.052209551788734467,-0.10500234607058685,0.1256715511381097,-0.0850681037492147,-0.07016143450848121,-0.09871420203603307,-0.0978086275971258,-0.09940402188199936,-0.08832099430022797,0.069135692773974,-0.07009171628992798,0.06943845751987204,0.07898148393052726,0.08941127139694202,0.12255006145213401,0.10550847028734504,-0.05769470145113065,-0.08775888103748533,-0.029863146846039655,-0.08172355558842771,-0.07623600885035883,0.16639014423005688,0.09737213204617363,-0.11342832457905191,0.09581738145679349,-0.07248995378659626,0.12473470600079532,0.07446217024280491,0.11088671809329229,-0.07797841348558013,-0.049682858958968776,0.09973965785733516,0.07317418561260396,-0.1117260845369932,-0.11468543586283224,0.22341729048662148,0.10769069651402688,-0.08776900287678345,-0.07866227124882587,0.08931884936839407,0.11180380917521479,-0.05897939605408185,0.14445671132173676,-0.06430851924943297,-0.08095836881611532,-0.004111636482450593,-0.0024011436608392263,0.21009288887828254,0.03675048247874154,-0.10339174115839203,-0.05446631354191321,0.12117093203384541,-0.11374213733476765,0.21922274478516207,0.11397285223798248,-0.16525166880781786,-0.09953915806470534,0.0778152943612305,0.0775221493034299,0.177557061850933,0.07198869886205993,-0.09966904013473414,-0.08356441643781037,-0.06900751441328927,0.08802296636722577,-0.0968243908218046,0.09505969959050478,-0.09314125731620439,-0.05222871499774553,-0.111875778407451,-0.09477873934418062,-0.20035992003476935,-0.10758736137985787,0.11447390122648445,0.04618097355418762,0.024572882000941786,0.0996392105502026,-0.08923720694513586,-0.14227776686410512,-0.08526958553714295,0.13963251192264184,0.09907703056738267,-0.1389021127707411,-0.11156935588302068,0.10321838277086563,0.14970678068784152,0.10213346997615558,-0.11643084337825704,-0.08037486897974687,0.04698571722495916,-0.09098745821397393,0.1092244961474101,-0.08213656220350965,-0.016309957039574094,-0.10051987300929706,-0.09880787682011141,-0.09342963396113127,-0.10142130187945649,-0.10732344941557903,-0.08188191976001598,-0.07612927596964278,-0.07399315685537178,-0.10254086922213476,-0.08945996836724943,-0.11673185602284689,0.12815028510744977,0.09702548870292915,-0.0992878398561912,0.13468773252861146,-0.10076567640897957,-0.09255882095422417,-0.10378233164791222,0.017250946219280867,0.03255128046835522,-0.051095558562235466,-0.06727409582664742,-0.03329527714303397,-0.02672426455886593,0.008552974002206821,-0.11297491462526658,0.04832977257912857,-0.04005292877731429,-0.03831630126610913,-0.03253082985426077,0.09881480599135986,-0.1255153944063946,0.04176510306896216,0.12192901043305157,0.05218924259874112,0.06958407035338379,0.10939003494220631,-0.14177636180463055,0.08337561753679129,-0.07588057122260043,-0.10939425616347198,-0.09143460989488798,-0.06345806907248557,0.1314623676355859,0.10091129432689902,-0.1532025241271385,-0.127340587523029,-0.13587063097305613,0.06037977159323066,0.15835179199698055,0.06519117037628316,-0.11580154370612879,-0.08345426189766454,0.052982003937296004,-0.11169331544919561,-0.12369174147316823,0.10269853971648005,0.0973736905334127,-0.040073805903733474,-0.07188074519542749,-0.1803299821308219,-0.09726773083146671,0.10225868654020472,-0.06733006676442324,-0.11574900817924214,-0.09423428577920326,-0.08454787718743353,-0.03799826657717838,-0.08916442733899019,-0.0944623374342578,-0.10144945717654344,-0.03276343916177675,-0.08344033230818242,-0.013072883470451399,-0.1192718701350173,-0.07955164631717725,-0.10811901771610788,-0.03742955963459087,0.18029036474195587,-0.07239478633331578,0.09274305525104182,-0.09332078980761507,-0.1012874231749062,0.12525763300050713,0.16435573120830765,-0.047873113674378936,0.08361912599197129,-0.04874590209775352,-0.04423652213397849,0.07685824522556012,-0.12454695760372134,0.06648844864072097,-0.12122989398118574,-0.170498400389902,0.11486518887487931,0.014666274443584487,-0.0872896869372807,-0.08542917286094205,0.15458411957401588,-0.04838328234200603,-0.1463734447887455,0.17287974727197525,0.058208119006195956,0.007891606011679075,0.12024430114461974,-0.08479985752423658,-0.1011335258925639,0.09944595661252156,-0.07233732296594023,-0.10995447760085238,0.10459927225381482,0.09670847349502089,-0.11019366122272747,0.12681779438452365,0.10512411852139728,-0.07806950549815334,0.09982256399225424,0.08756141615879302,-0.056956276353126924,-0.08141361955762502,-0.12301737791189638,-0.09702995153694156,0.06345915584463425,-0.05065576113732865,0.08008756384413247,0.045817399865669774,-0.1074081694672491,-0.09809856244497017,-0.09859043125319976
1,ShopFacade,test,seq3,ShopFacade/seq3/frame00002.png,-12.499387,-7.876249,1.945435,0.6348520000000001,0.623931,-0.329884,0.314403,1,-0.1064741914189667,-0.07184228102326146,0.10113443486516223,3,0.007510909172597988,0.08366779975650082,0.10255689797305725,-0.22826327618289413,0.011296181583909154,-0.022231831701720335,0.06488980950409141,-0.10406333867367386,0.1465827368274913,0.07178396817890616,0.08927880192017891,0.10801674625461233,-0.14112698086539538,-0.09705752466119913,-0.09877519149292668,-0.15597410221048713,0.08683646250327999,0.09147649105698746,-0.09439181765013552,-0.054592655365294826,-0.04184390685254487,-0.1807455730444734,-0.056849130135993894,0.11019395467187469,-0.09629330651832504,-0.15517294708943138,-0.0721074175808442,-0.12508934854964815,-0.09816938027767301,-0.09870056375083495,-0.09676103276527091,-0.11061424446225568,-0.10212108817831009,0.04325116024597138,-0.10854321526143065,0.09925205044743454,0.1372229255873683,0.12752168728794708,-0.07133627084497463,-0.01835875835692912,-0.005218490909852431,-0.1236396261065971,0.11677939745279005,-0.09661828931660472,0.13449950639480832,-0.09957444344926925,0.09673617976653591,-0.09079609434561373,-0.11523028650664305,-0.16006618284022017,-0.04231753076555098,-0.15410124344288958,-0.07937028660213778,-0.10400493821947607,0.08905213234888662,0.07006246980754968,0.18125714226057432,0.00982705981091902,-0.09322360102394883,0.14646977834192673,0.153067689963736,-0.10252589744570992,0.07502542630878088,-0.10415421288796878,0.09625544022651723,-0.06796480799880392,0.03508765102674728,0.08310972550337156,0.12930798068629604,-0.043303630926998335,-0.12212716869219638,0.09535531500258185,-0.08007475986011646,0.13603768631911112,0.15157716715728162,0.0681316614514135,-0.059693395684479324,-0.10332222423448649,-0.007848022584607725,-0.09870585006760957,-0.09859148082966314,-0.11140181500162352,-0.1527657943501188,-0.07161571227714225,0.09198823151595646,-0.00749276123949281,0.18601404361508256,-0.1402944770463837,-0.03774637243277248,0.17743636135446267,-0.10221874259289858,-0.14681636133623377,-0.080952097693686,0.00998021325509597,-0.006719917304636823,0.0971541167282712,-0.07328103927256044,0.06878961842209634,0.10472634688957252,0.11125986782456151,-0.09396084687493025,0.10263841904031346,-0.09438000781580096,0.180118165957098,0.05529706592041424,-0.05200682928133351,0.13873069783222697,0.15361069017766654,0.1275695494304922,-0.06872292373566172,-0.08941764337868374,-0.1754233598474863,-0.09994431410595392,-0.09787604298695393,-0.09516237092097288,0.0932019570196979,0.09412994544881495,-0.15058854376183287,0.07497962278143382,0.15234508717636364,-0.11938422392485819,-0.10584845084412195,0.08642172483209397,-0.09928114828543752,-0.09847579556966396,-0.06913851115360276,-0.11326706454983568,-0.03100189202943694,-0.08472631801650247,-0.06834159283689092,-0.11710158402827786,0.0021894366079007388,-0.10708905603096208,-0.0726807781632253,0.116109154137006,-0.10227799744838846,0.05009086217733263,0.12436959059348622,-0.1238060430331378,0.13149964069891878,-0.1173907338110662,0.08741292309912224,0.15209104316214583,0.1024432286886026,-0.0040921735254227706,0.07751942597261906,-0.013508490940822317,-0.10637558484954786,0.021590369656492917,0.14620208784901004,-0.11301186241207843,-0.1049606693446083,-0.09145261195815742,-0.08502359673752354,-0.14933956814574878,-0.08260288774670485,-0.12238674904162802,-0.1140379193068227,0.15103483207282328,0.06275257612985537,-0.10472657520821449,0.15866582263945891,0.14726803302809133,0.061750921600929834,0.052209551788734467,-0.10500234607058685,0.1256715511381097,-0.0850681037492147,-0.07016143450848121,-0.09871420203603307,-0.0978086275971258,-0.09940402188199936,-0.08832099430022797,0.069135692773974,-0.07009171628992798,0.06943845751987204,0.07898148393052726,0.08941127139694202,0.12255006145213401,0.10550847028734504,-0.05769470145113065,-0.08775888103748533,-0.029863146846039655,-0.08172355558842771,-0.07623600885035883,0.16639014423005688,0.09737213204617363,-0.11342832457905191,0.09581738145679349,-0.07248995378659626,0.12473470600079532,0.07446217024280491,0.11088671809329229,-0.07797841348558013,-0.049682858958968776,0.09973965785733516,0.07317418561260396,-0.1117260845369932,-0.11468543586283224,0.22341729048662148,0.10769069651402688,-0.08776900287678345,-0.07866227124882587,0.08931884936839407,0.11180380917521479,-0.05897939605408185,0.14445671132173676,-0.06430851924943297,-0.08095836881611532,-0.004111636482450593,-0.0024011436608392263,0.21009288887828254,0.03675048247874154,-0.10339174115839203,-0.05446631354191321,0.12117093203384541,-0.11374213733476765,0.21922274478516207,0.11397285223798248,-0.16525166880781786,-0.09953915806470534,0.0778152943612305,0.0775221493034299,0.177557061850933,0.07198869886205993,-0.09966904013473414,-0.08356441643781037,-0.06900751441328927,0.08802296636722577,-0.0968243908218046,0.09505969959050478,-0.09314125731620439,-0.05222871499774553,-0.111875778407451,-0.09477873934418062,-0.20035992003476935,-0.10758736137985787,0.11447390122648445,0.04618097355418762,0.024572882000941786,0.0996392105502026,-0.08923720694513586,-0.14227776686410512,-0.08526958553714295,0.13963251192264184,0.09907703056738267,-0.1389021127707411,-0.11156935588302068,0.10321838277086563,0.14970678068784152,0.10213346997615558,-0.11643084337825704,-0.08037486897974687,0.04698571722495916,-0.09098745821397393,0.1092244961474101,-0.08213656220350965,-0.016309957039574094,-0.10051987300929706,-0.09880787682011141,-0.09342963396113127,-0.10142130187945649,-0.10732344941557903,-0.08188191976001598,-0.07612927596964278,-0.07399315685537178,-0.10254086922213476,-0.08945996836724943,-0.11673185602284689,0.12815028510744977,0.09702548870292915,-0.0992878398561912,0.13468773252861146,-0.10076567640897957,-0.09255882095422417,-0.10378233164791222,0.017250946219280867,0.03255128046835522,-0.051095558562235466,-0.06727409582664742,-0.03329527714303397,-0.02672426455886593,0.008552974002206821,-0.11297491462526658,0.04832977257912857,-0.04005292877731429,-0.03831630126610913,-0.03253082985426077,0.09881480599135986,-0.1255153944063946,0.04176510306896216,0.12192901043305157,0.05218924259874112,0.06958407035338379,0.10939003494220631,-0.14177636180463055,0.08337561753679129,-0.07588057122260043,-0.10939425616347198,-0.09143460989488798,-0.06345806907248557,0.1314623676355859,0.10091129432689902,-0.1532025241271385,-0.127340587523029,-0.13587063097305613,0.06037977159323066,0.15835179199698055,0.06519117037628316,-0.11580154370612879,-0.08345426189766454,0.052982003937296004,-0.11169331544919561,-0.12369174147316823,0.10269853971648005,0.0973736905334127,-0.040073805903733474,-0.07188074519542749,-0.1803299821308219,-0.09726773083146671,0.10225868654020472,-0.06733006676442324,-0.11574900817924214,-0.09423428577920326,-0.08454787718743353,-0.03799826657717838,-0.08916442733899019,-0.0944623374342578,-0.10144945717654344,-0.03276343916177675,-0.08344033230818242,-0.013072883470451399,-0.1192718701350173,-0.07955164631717725,-0.10811901771610788,-0.03742955963459087,0.18029036474195587,-0.07239478633331578,0.09274305525104182,-0.09332078980761507,-0.1012874231749062,0.12525763300050713,0.16435573120830765,-0.047873113674378936,0.08361912599197129,-0.04874590209775352,-0.04423652213397849,0.07685824522556012,-0.12454695760372134,0.06648844864072097,-0.12122989398118574,-0.170498400389902,0.11486518887487931,0.014666274443584487,-0.0872896869372807,-0.08542917286094205,0.15458411957401588,-0.04838328234200603,-0.1463734447887455,0.17287974727197525,0.058208119006195956,0.007891606011679075,0.12024430114461974,-0.08479985752423658,-0.1011335258925639,0.09944595661252156,-0.07233732296594023,-0.10995447760085238,0.10459927225381482,0.09670847349502089,-0.11019366122272747,0.12681779438452365,0.10512411852139728,-0.07806950549815334,0.09982256399225424,0.08756141615879302,-0.056956276353126924,-0.08141361955762502,-0.12301737791189638,-0.09702995153694156,0.06345915584463425,-0.05065576113732865,0.08008756384413247,0.045817399865669774,-0.1074081694672491,-0.09809856244497017,-0.09859043125319976
2,ShopFacade,test,seq3,ShopFacade/seq3/frame00003.png,-12.534307,-7.905508,1.937112,0.634,0.630005,-0.322161,0.312011,1,-0.1064741914189667,-0.07184228102326146,0.10113443486516223,3,0.007510909172597988,0.08366779975650082,0.10255689797305725,-0.22826327618289413,0.011296181583909154,-0.022231831701720335,0.06488980950409141,-0.10406333867367386,0.1465827368274913,0.07178396817890616,0.08927880192017891,0.10801674625461233,-0.14112698086539538,-0.09705752466119913,-0.09877519149292668,-0.15597410221048713,0.08683646250327999,0.09147649105698746,-0.09439181765013552,-0.054592655365294826,-0.04184390685254487,-0.1807455730444734,-0.056849130135993894,0.11019395467187469,-0.09629330651832504,-0.15517294708943138,-0.0721074175808442,-0.12508934854964815,-0.09816938027767301,-0.09870056375083495,-0.09676103276527091,-0.11061424446225568,-0.10212108817831009,0.04325116024597138,-0.10854321526143065,0.09925205044743454,0.1372229255873683,0.12752168728794708,-0.07133627084497463,-0.01835875835692912,-0.005218490909852431,-0.1236396261065971,0.11677939745279005,-0.09661828931660472,0.13449950639480832,-0.09957444344926925,0.09673617976653591,-0.09079609434561373,-0.11523028650664305,-0.16006618284022017,-0.04231753076555098,-0.15410124344288958,-0.07937028660213778,-0.10400493821947607,0.08905213234888662,0.07006246980754968,0.18125714226057432,0.00982705981091902,-0.09322360102394883,0.14646977834192673,0.153067689963736,-0.10252589744570992,0.07502542630878088,-0.10415421288796878,0.09625544022651723,-0.06796480799880392,0.03508765102674728,0.08310972550337156,0.12930798068629604,-0.043303630926998335,-0.12212716869219638,0.09535531500258185,-0.08007475986011646,0.13603768631911112,0.15157716715728162,0.0681316614514135,-0.059693395684479324,-0.10332222423448649,-0.007848022584607725,-0.09870585006760957,-0.09859148082966314,-0.11140181500162352,-0.1527657943501188,-0.07161571227714225,0.09198823151595646,-0.00749276123949281,0.18601404361508256,-0.1402944770463837,-0.03774637243277248,0.17743636135446267,-0.10221874259289858,-0.14681636133623377,-0.080952097693686,0.00998021325509597,-0.006719917304636823,0.0971541167282712,-0.07328103927256044,0.06878961842209634,0.10472634688957252,0.11125986782456151,-0.09396084687493025,0.10263841904031346,-0.09438000781580096,0.180118165957098,0.05529706592041424,-0.05200682928133351,0.13873069783222697,0.15361069017766654,0.1275695494304922,-0.06872292373566172,-0.08941764337868374,-0.1754233598474863,-0.09994431410595392,-0.09787604298695393,-0.09516237092097288,0.0932019570196979,0.09412994544881495,-0.15058854376183287,0.07497962278143382,0.15234508717636364,-0.11938422392485819,-0.10584845084412195,0.08642172483209397,-0.09928114828543752,-0.09847579556966396,-0.06913851115360276,-0.11326706454983568,-0.03100189202943694,-0.08472631801650247,-0.06834159283689092,-0.11710158402827786,0.0021894366079007388,-0.10708905603096208,-0.0726807781632253,0.116109154137006,-0.10227799744838846,0.05009086217733263,0.12436959059348622,-0.1238060430331378,0.13149964069891878,-0.1173907338110662,0.08741292309912224,0.15209104316214583,0.1024432286886026,-0.0040921735254227706,0.07751942597261906,-0.013508490940822317,-0.10637558484954786,0.021590369656492917,0.14620208784901004,-0.11301186241207843,-0.1049606693446083,-0.09145261195815742,-0.08502359673752354,-0.14933956814574878,-0.08260288774670485,-0.12238674904162802,-0.1140379193068227,0.15103483207282328,0.06275257612985537,-0.10472657520821449,0.15866582263945891,0.14726803302809133,0.061750921600929834,0.052209551788734467,-0.10500234607058685,0.1256715511381097,-0.0850681037492147,-0.07016143450848121,-0.09871420203603307,-0.0978086275971258,-0.09940402188199936,-0.08832099430022797,0.069135692773974,-0.07009171628992798,0.06943845751987204,0.07898148393052726,0.08941127139694202,0.12255006145213401,0.10550847028734504,-0.05769470145113065,-0.08775888103748533,-0.029863146846039655,-0.08172355558842771,-0.07623600885035883,0.16639014423005688,0.09737213204617363,-0.11342832457905191,0.09581738145679349,-0.07248995378659626,0.12473470600079532,0.07446217024280491,0.11088671809329229,-0.07797841348558013,-0.049682858958968776,0.09973965785733516,0.07317418561260396,-0.1117260845369932,-0.11468543586283224,0.22341729048662148,0.10769069651402688,-0.08776900287678345,-0.07866227124882587,0.08931884936839407,0.11180380917521479,-0.05897939605408185,0.14445671132173676,-0.06430851924943297,-0.08095836881611532,-0.004111636482450593,-0.0024011436608392263,0.21009288887828254,0.03675048247874154,-0.10339174115839203,-0.05446631354191321,0.12117093203384541,-0.11374213733476765,0.21922274478516207,0.11397285223798248,-0.16525166880781786,-0.09953915806470534,0.0778152943612305,0.0775221493034299,0.177557061850933,0.07198869886205993,-0.09966904013473414,-0.08356441643781037,-0.06900751441328927,0.08802296636722577,-0.0968243908218046,0.09505969959050478,-0.09314125731620439,-0.05222871499774553,-0.111875778407451,-0.09477873934418062,-0.20035992003476935,-0.10758736137985787,0.11447390122648445,0.04618097355418762,0.024572882000941786,0.0996392105502026,-0.08923720694513586,-0.14227776686410512,-0.08526958553714295,0.13963251192264184,0.09907703056738267,-0.1389021127707411,-0.11156935588302068,0.10321838277086563,0.14970678068784152,0.10213346997615558,-0.11643084337825704,-0.08037486897974687,0.04698571722495916,-0.09098745821397393,0.1092244961474101,-0.08213656220350965,-0.016309957039574094,-0.10051987300929706,-0.09880787682011141,-0.09342963396113127,-0.10142130187945649,-0.10732344941557903,-0.08188191976001598,-0.07612927596964278,-0.07399315685537178,-0.10254086922213476,-0.08945996836724943,-0.11673185602284689,0.12815028510744977,0.09702548870292915,-0.0992878398561912,0.13468773252861146,-0.10076567640897957,-0.09255882095422417,-0.10378233164791222,0.017250946219280867,0.03255128046835522,-0.051095558562235466,-0.06727409582664742,-0.03329527714303397,-0.02672426455886593,0.008552974002206821,-0.11297491462526658,0.04832977257912857,-0.04005292877731429,-0.03831630126610913,-0.03253082985426077,0.09881480599135986,-0.1255153944063946,0.04176510306896216,0.12192901043305157,0.05218924259874112,0.06958407035338379,0.10939003494220631,-0.14177636180463055,0.08337561753679129,-0.07588057122260043,-0.10939425616347198,-0.09143460989488798,-0.06345806907248557,0.1314623676355859,0.10091129432689902,-0.1532025241271385,-0.127340587523029,-0.13587063097305613,0.06037977159323066,0.15835179199698055,0.06519117037628316,-0.11580154370612879,-0.08345426189766454,0.052982003937296004,-0.11169331544919561,-0.12369174147316823,0.10269853971648005,0.0973736905334127,-0.040073805903733474,-0.07188074519542749,-0.1803299821308219,-0.09726773083146671,0.10225868654020472,-0.06733006676442324,-0.11574900817924214,-0.09423428577920326,-0.08454787718743353,-0.03799826657717838,-0.08916442733899019,-0.0944623374342578,-0.10144945717654344,-0.03276343916177675,-0.08344033230818242,-0.013072883470451399,-0.1192718701350173,-0.07955164631717725,-0.10811901771610788,-0.03742955963459087,0.18029036474195587,-0.07239478633331578,0.09274305525104182,-0.09332078980761507,-0.1012874231749062,0.12525763300050713,0.16435573120830765,-0.047873113674378936,0.08361912599197129,-0.04874590209775352,-0.04423652213397849,0.07685824522556012,-0.12454695760372134,0.06648844864072097,-0.12122989398118574,-0.170498400389902,0.11486518887487931,0.014666274443584487,-0.0872896869372807,-0.08542917286094205,0.15458411957401588,-0.04838328234200603,-0.1463734447887455,0.17287974727197525,0.058208119006195956,0.007891606011679075,0.12024430114461974,-0.08479985752423658,-0.1011335258925639,0.09944595661252156,-0.07233732296594023,-0.10995447760085238,0.10459927225381482,0.09670847349502089,-0.11019366122272747,0.12681779438452365,0.10512411852139728,-0.07806950549815334,0.09982256399225424,0.08756141615879302,-0.056956276353126924,-0.08141361955762502,-0.12301737791189638,-0.09702995153694156,0.06345915584463425,-0.05065576113732865,0.08008756384413247,0.045817399865669774,-0.1074081694672491,-0.09809856244497017,-0.09859043125319976
3,ShopFacade,test,seq3,ShopFacade/seq3/frame00004.png,-12.357323,-7.936909,1.949609,0.638523,0.636454,-0.310773,0.301057,1,-0.1064741914189667,-0.07184228102326146,0.10113443486516223,3,0.007510909172597988,0.08366779975650082,0.10255689797305725,-0.22826327618289413,0.011296181583909154,-0.022231831701720335,0.06488980950409141,-0.10406333867367386,0.1465827368274913,0.07178396817890616,0.08927880192017891,0.10801674625461233,-0.14112698086539538,-0.09705752466119913,-0.09877519149292668,-0.15597410221048713,0.08683646250327999,0.09147649105698746,-0.09439181765013552,-0.054592655365294826,-0.04184390685254487,-0.1807455730444734,-0.056849130135993894,0.11019395467187469,-0.09629330651832504,-0.15517294708943138,-0.0721074175808442,-0.12508934854964815,-0.09816938027767301,-0.09870056375083495,-0.09676103276527091,-0.11061424446225568,-0.10212108817831009,0.04325116024597138,-0.10854321526143065,0.09925205044743454,0.1372229255873683,0.12752168728794708,-0.07133627084497463,-0.01835875835692912,-0.005218490909852431,-0.1236396261065971,0.11677939745279005,-0.09661828931660472,0.13449950639480832,-0.09957444344926925,0.09673617976653591,-0.09079609434561373,-0.11523028650664305,-0.16006618284022017,-0.04231753076555098,-0.15410124344288958,-0.07937028660213778,-0.10400493821947607,0.08905213234888662,0.07006246980754968,0.18125714226057432,0.00982705981091902,-0.09322360102394883,0.14646977834192673,0.153067689963736,-0.10252589744570992,0.07502542630878088,-0.10415421288796878,0.09625544022651723,-0.06796480799880392,0.03508765102674728,0.08310972550337156,0.12930798068629604,-0.043303630926998335,-0.12212716869219638,0.09535531500258185,-0.08007475986011646,0.13603768631911112,0.15157716715728162,0.0681316614514135,-0.059693395684479324,-0.10332222423448649,-0.007848022584607725,-0.09870585006760957,-0.09859148082966314,-0.11140181500162352,-0.1527657943501188,-0.07161571227714225,0.09198823151595646,-0.00749276123949281,0.18601404361508256,-0.1402944770463837,-0.03774637243277248,0.17743636135446267,-0.10221874259289858,-0.14681636133623377,-0.080952097693686,0.00998021325509597,-0.006719917304636823,0.0971541167282712,-0.07328103927256044,0.06878961842209634,0.10472634688957252,0.11125986782456151,-0.09396084687493025,0.10263841904031346,-0.09438000781580096,0.180118165957098,0.05529706592041424,-0.05200682928133351,0.13873069783222697,0.15361069017766654,0.1275695494304922,-0.06872292373566172,-0.08941764337868374,-0.1754233598474863,-0.09994431410595392,-0.09787604298695393,-0.09516237092097288,0.0932019570196979,0.09412994544881495,-0.15058854376183287,0.07497962278143382,0.15234508717636364,-0.11938422392485819,-0.10584845084412195,0.08642172483209397,-0.09928114828543752,-0.09847579556966396,-0.06913851115360276,-0.11326706454983568,-0.03100189202943694,-0.08472631801650247,-0.06834159283689092,-0.11710158402827786,0.0021894366079007388,-0.10708905603096208,-0.0726807781632253,0.116109154137006,-0.10227799744838846,0.05009086217733263,0.12436959059348622,-0.1238060430331378,0.13149964069891878,-0.1173907338110662,0.08741292309912224,0.15209104316214583,0.1024432286886026,-0.0040921735254227706,0.07751942597261906,-0.013508490940822317,-0.10637558484954786,0.021590369656492917,0.14620208784901004,-0.11301186241207843,-0.1049606693446083,-0.09145261195815742,-0.08502359673752354,-0.14933956814574878,-0.08260288774670485,-0.12238674904162802,-0.1140379193068227,0.15103483207282328,0.06275257612985537,-0.10472657520821449,0.15866582263945891,0.14726803302809133,0.061750921600929834,0.052209551788734467,-0.10500234607058685,0.1256715511381097,-0.0850681037492147,-0.07016143450848121,-0.09871420203603307,-0.0978086275971258,-0.09940402188199936,-0.08832099430022797,0.069135692773974,-0.07009171628992798,0.06943845751987204,0.07898148393052726,0.08941127139694202,0.12255006145213401,0.10550847028734504,-0.05769470145113065,-0.08775888103748533,-0.029863146846039655,-0.08172355558842771,-0.07623600885035883,0.16639014423005688,0.09737213204617363,-0.11342832457905191,0.09581738145679349,-0.07248995378659626,0.12473470600079532,0.07446217024280491,0.11088671809329229,-0.07797841348558013,-0.049682858958968776,0.09973965785733516,0.07317418561260396,-0.1117260845369932,-0.11468543586283224,0.22341729048662148,0.10769069651402688,-0.08776900287678345,-0.07866227124882587,0.08931884936839407,0.11180380917521479,-0.05897939605408185,0.14445671132173676,-0.06430851924943297,-0.08095836881611532,-0.004111636482450593,-0.0024011436608392263,0.21009288887828254,0.03675048247874154,-0.10339174115839203,-0.05446631354191321,0.12117093203384541,-0.11374213733476765,0.21922274478516207,0.11397285223798248,-0.16525166880781786,-0.09953915806470534,0.0778152943612305,0.0775221493034299,0.177557061850933,0.07198869886205993,-0.09966904013473414,-0.08356441643781037,-0.06900751441328927,0.08802296636722577,-0.0968243908218046,0.09505969959050478,-0.09314125731620439,-0.05222871499774553,-0.111875778407451,-0.09477873934418062,-0.20035992003476935,-0.10758736137985787,0.11447390122648445,0.04618097355418762,0.024572882000941786,0.0996392105502026,-0.08923720694513586,-0.14227776686410512,-0.08526958553714295,0.13963251192264184,0.09907703056738267,-0.1389021127707411,-0.11156935588302068,0.10321838277086563,0.14970678068784152,0.10213346997615558,-0.11643084337825704,-0.08037486897974687,0.04698571722495916,-0.09098745821397393,0.1092244961474101,-0.08213656220350965,-0.016309957039574094,-0.10051987300929706,-0.09880787682011141,-0.09342963396113127,-0.10142130187945649,-0.10732344941557903,-0.08188191976001598,-0.07612927596964278,-0.07399315685537178,-0.10254086922213476,-0.08945996836724943,-0.11673185602284689,0.12815028510744977,0.09702548870292915,-0.0992878398561912,0.13468773252861146,-0.10076567640897957,-0.09255882095422417,-0.10378233164791222,0.017250946219280867,0.03255128046835522,-0.051095558562235466,-0.06727409582664742,-0.03329527714303397,-0.02672426455886593,0.008552974002206821,-0.11297491462526658,0.04832977257912857,-0.04005292877731429,-0.03831630126610913,-0.03253082985426077,0.09881480599135986,-0.1255153944063946,0.04176510306896216,0.12192901043305157,0.05218924259874112,0.06958407035338379,0.10939003494220631,-0.14177636180463055,0.08337561753679129,-0.07588057122260043,-0.10939425616347198,-0.09143460989488798,-0.06345806907248557,0.1314623676355859,0.10091129432689902,-0.1532025241271385,-0.127340587523029,-0.13587063097305613,0.06037977159323066,0.15835179199698055,0.06519117037628316,-0.11580154370612879,-0.08345426189766454,0.052982003937296004,-0.11169331544919561,-0.12369174147316823,0.10269853971648005,0.0973736905334127,-0.040073805903733474,-0.07188074519542749,-0.1803299821308219,-0.09726773083146671,0.10225868654020472,-0.06733006676442324,-0.11574900817924214,-0.09423428577920326,-0.08454787718743353,-0.03799826657717838,-0.08916442733899019,-0.0944623374342578,-0.10144945717654344,-0.03276343916177675,-0.08344033230818242,-0.013072883470451399,-0.1192718701350173,-0.07955164631717725,-0.10811901771610788,-0.03742955963459087,0.18029036474195587,-0.07239478633331578,0.09274305525104182,-0.09332078980761507,-0.1012874231749062,0.12525763300050713,0.16435573120830765,-0.047873113674378936,0.08361912599197129,-0.04874590209775352,-0.04423652213397849,0.07685824522556012,-0.12454695760372134,0.06648844864072097,-0.12122989398118574,-0.170498400389902,0.11486518887487931,0.014666274443584487,-0.0872896869372807,-0.08542917286094205,0.15458411957401588,-0.04838328234200603,-0.1463734447887455,0.17287974727197525,0.058208119006195956,0.007891606011679075,0.12024430114461974,-0.08479985752423658,-0.1011335258925639,0.09944595661252156,-0.07233732296594023,-0.10995447760085238,0.10459927225381482,0.09670847349502089,-0.11019366122272747,0.12681779438452365,0.10512411852139728,-0.07806950549815334,0.09982256399225424,0.08756141615879302,-0.056956276353126924,-0.08141361955762502,-0.12301737791189638,-0.09702995153694156,0.06345915584463425,-0.05065576113732865,0.08008756384413247,0.045817399865669774,-0.1074081694672491,-0.09809856244497017,-0.09859043125319976
4,ShopFacade,test,seq3,ShopFacade/seq3/frame00005.png,-11.543763,-7.977441000000001,1.951143,0.633145,0.642212,-0.301952,0.309057,1,-0.1064741914189667,-0.07184228102326146,0.10113443486516223,3,0.007510909172597988,0.08366779975650082,0.10255689797305725,-0.22826327618289413,0.011296181583909154,-0.022231831701720335,0.06488980950409141,-0.10406333867367386,0.1465827368274913,0.07178396817890616,0.08927880192017891,0.10801674625461233,-0.14112698086539538,-0.09705752466119913,-0.09877519149292668,-0.15597410221048713,0.08683646250327999,0.09147649105698746,-0.09439181765013552,-0.054592655365294826,-0.04184390685254487,-0.1807455730444734,-0.056849130135993894,0.11019395467187469,-0.09629330651832504,-0.15517294708943138,-0.0721074175808442,-0.12508934854964815,-0.09816938027767301,-0.09870056375083495,-0.09676103276527091,-0.11061424446225568,-0.10212108817831009,0.04325116024597138,-0.10854321526143065,0.09925205044743454,0.1372229255873683,0.12752168728794708,-0.07133627084497463,-0.01835875835692912,-0.005218490909852431,-0.1236396261065971,0.11677939745279005,-0.09661828931660472,0.13449950639480832,-0.09957444344926925,0.09673617976653591,-0.09079609434561373,-0.11523028650664305,-0.16006618284022017,-0.04231753076555098,-0.15410124344288958,-0.07937028660213778,-0.10400493821947607,0.08905213234888662,0.07006246980754968,0.18125714226057432,0.00982705981091902,-0.09322360102394883,0.14646977834192673,0.153067689963736,-0.10252589744570992,0.07502542630878088,-0.10415421288796878,0.09625544022651723,-0.06796480799880392,0.03508765102674728,0.08310972550337156,0.12930798068629604,-0.043303630926998335,-0.12212716869219638,0.09535531500258185,-0.08007475986011646,0.13603768631911112,0.15157716715728162,0.0681316614514135,-0.059693395684479324,-0.10332222423448649,-0.007848022584607725,-0.09870585006760957,-0.09859148082966314,-0.11140181500162352,-0.1527657943501188,-0.07161571227714225,0.09198823151595646,-0.00749276123949281,0.18601404361508256,-0.1402944770463837,-0.03774637243277248,0.17743636135446267,-0.10221874259289858,-0.14681636133623377,-0.080952097693686,0.00998021325509597,-0.006719917304636823,0.0971541167282712,-0.07328103927256044,0.06878961842209634,0.10472634688957252,0.11125986782456151,-0.09396084687493025,0.10263841904031346,-0.09438000781580096,0.180118165957098,0.05529706592041424,-0.05200682928133351,0.13873069783222697,0.15361069017766654,0.1275695494304922,-0.06872292373566172,-0.08941764337868374,-0.1754233598474863,-0.09994431410595392,-0.09787604298695393,-0.09516237092097288,0.0932019570196979,0.09412994544881495,-0.15058854376183287,0.07497962278143382,0.15234508717636364,-0.11938422392485819,-0.10584845084412195,0.08642172483209397,-0.09928114828543752,-0.09847579556966396,-0.06913851115360276,-0.11326706454983568,-0.03100189202943694,-0.08472631801650247,-0.06834159283689092,-0.11710158402827786,0.0021894366079007388,-0.10708905603096208,-0.0726807781632253,0.116109154137006,-0.10227799744838846,0.05009086217733263,0.12436959059348622,-0.1238060430331378,0.13149964069891878,-0.1173907338110662,0.08741292309912224,0.15209104316214583,0.1024432286886026,-0.0040921735254227706,0.07751942597261906,-0.013508490940822317,-0.10637558484954786,0.021590369656492917,0.14620208784901004,-0.11301186241207843,-0.1049606693446083,-0.09145261195815742,-0.08502359673752354,-0.14933956814574878,-0.08260288774670485,-0.12238674904162802,-0.1140379193068227,0.15103483207282328,0.06275257612985537,-0.10472657520821449,0.15866582263945891,0.14726803302809133,0.061750921600929834,0.052209551788734467,-0.10500234607058685,0.1256715511381097,-0.0850681037492147,-0.07016143450848121,-0.09871420203603307,-0.0978086275971258,-0.09940402188199936,-0.08832099430022797,0.069135692773974,-0.07009171628992798,0.06943845751987204,0.07898148393052726,0.08941127139694202,0.12255006145213401,0.10550847028734504,-0.05769470145113065,-0.08775888103748533,-0.029863146846039655,-0.08172355558842771,-0.07623600885035883,0.16639014423005688,0.09737213204617363,-0.11342832457905191,0.09581738145679349,-0.07248995378659626,0.12473470600079532,0.07446217024280491,0.11088671809329229,-0.07797841348558013,-0.049682858958968776,0.09973965785733516,0.07317418561260396,-0.1117260845369932,-0.11468543586283224,0.22341729048662148,0.10769069651402688,-0.08776900287678345,-0.07866227124882587,0.08931884936839407,0.11180380917521479,-0.05897939605408185,0.14445671132173676,-0.06430851924943297,-0.08095836881611532,-0.004111636482450593,-0.0024011436608392263,0.21009288887828254,0.03675048247874154,-0.10339174115839203,-0.05446631354191321,0.12117093203384541,-0.11374213733476765,0.21922274478516207,0.11397285223798248,-0.16525166880781786,-0.09953915806470534,0.0778152943612305,0.0775221493034299,0.177557061850933,0.07198869886205993,-0.09966904013473414,-0.08356441643781037,-0.06900751441328927,0.08802296636722577,-0.0968243908218046,0.09505969959050478,-0.09314125731620439,-0.05222871499774553,-0.111875778407451,-0.09477873934418062,-0.20035992003476935,-0.10758736137985787,0.11447390122648445,0.04618097355418762,0.024572882000941786,0.0996392105502026,-0.08923720694513586,-0.14227776686410512,-0.08526958553714295,0.13963251192264184,0.09907703056738267,-0.1389021127707411,-0.11156935588302068,0.10321838277086563,0.14970678068784152,0.10213346997615558,-0.11643084337825704,-0.08037486897974687,0.04698571722495916,-0.09098745821397393,0.1092244961474101,-0.08213656220350965,-0.016309957039574094,-0.10051987300929706,-0.09880787682011141,-0.09342963396113127,-0.10142130187945649,-0.10732344941557903,-0.08188191976001598,-0.07612927596964278,-0.07399315685537178,-0.10254086922213476,-0.08945996836724943,-0.11673185602284689,0.12815028510744977,0.09702548870292915,-0.0992878398561912,0.13468773252861146,-0.10076567640897957,-0.09255882095422417,-0.10378233164791222,0.017250946219280867,0.03255128046835522,-0.051095558562235466,-0.06727409582664742,-0.03329527714303397,-0.02672426455886593,0.008552974002206821,-0.11297491462526658,0.04832977257912857,-0.04005292877731429,-0.03831630126610913,-0.03253082985426077,0.09881480599135986,-0.1255153944063946,0.04176510306896216,0.12192901043305157,0.05218924259874112,0.06958407035338379,0.10939003494220631,-0.14177636180463055,0.08337561753679129,-0.07588057122260043,-0.10939425616347198,-0.09143460989488798,-0.06345806907248557,0.1314623676355859,0.10091129432689902,-0.1532025241271385,-0.127340587523029,-0.13587063097305613,0.06037977159323066,0.15835179199698055,0.06519117037628316,-0.11580154370612879,-0.08345426189766454,0.052982003937296004,-0.11169331544919561,-0.12369174147316823,0.10269853971648005,0.0973736905334127,-0.040073805903733474,-0.07188074519542749,-0.1803299821308219,-0.09726773083146671,0.10225868654020472,-0.06733006676442324,-0.11574900817924214,-0.09423428577920326,-0.08454787718743353,-0.03799826657717838,-0.08916442733899019,-0.0944623374342578,-0.10144945717654344,-0.03276343916177675,-0.08344033230818242,-0.013072883470451399,-0.1192718701350173,-0.07955164631717725,-0.10811901771610788,-0.03742955963459087,0.18029036474195587,-0.07239478633331578,0.09274305525104182,-0.09332078980761507,-0.1012874231749062,0.12525763300050713,0.16435573120830765,-0.047873113674378936,0.08361912599197129,-0.04874590209775352,-0.04423652213397849,0.07685824522556012,-0.12454695760372134,0.06648844864072097,-0.12122989398118574,-0.170498400389902,0.11486518887487931,0.014666274443584487,-0.0872896869372807,-0.08542917286094205,0.15458411957401588,-0.04838328234200603,-0.1463734447887455,0.17287974727197525,0.058208119006195956,0.007891606011679075,0.12024430114461974,-0.08479985752423658,-0.1011335258925639,0.09944595661252156,-0.07233732296594023,-0.10995447760085238,0.10459927225381482,0.09670847349502089,-0.11019366122272747,0.12681779438452365,0.10512411852139728,-0.07806950549815334,0.09982256399225424,0.08756141615879302,-0.056956276353126924,-0.08141361955762502,-0.12301737791189638,-0.09702995153694156,0.06345915584463425,-0.05065576113732865,0.08008756384413247,0.045817399865669774,-0.1074081694672491,-0.09809856244497017,-0.09859043125319976
5,ShopFacade,test,seq3,ShopFacade/seq3/frame00006.png,-10.815438,-8.226074,1.934376,0.642936,0.65146,-0.273952,0.29527,1,-0.1064741914189667,-0.07184228102326146,0.10113443486516223,3,0.007510909172597988,0.08366779975650082,0.10255689797305725,-0.22826327618289413,0.011296181583909154,-0.022231831701720335,0.06488980950409141,-0.10406333867367386,0.1465827368274913,0.07178396817890616,0.08927880192017891,0.10801674625461233,-0.14112698086539538,-0.09705752466119913,-0.09877519149292668,-0.15597410221048713,0.08683646250327999,0.09147649105698746,-0.09439181765013552,-0.054592655365294826,-0.04184390685254487,-0.1807455730444734,-0.056849130135993894,0.11019395467187469,-0.09629330651832504,-0.15517294708943138,-0.0721074175808442,-0.12508934854964815,-0.09816938027767301,-0.09870056375083495,-0.09676103276527091,-0.11061424446225568,-0.10212108817831009,0.04325116024597138,-0.10854321526143065,0.09925205044743454,0.1372229255873683,0.12752168728794708,-0.07133627084497463,-0.01835875835692912,-0.005218490909852431,-0.1236396261065971,0.11677939745279005,-0.09661828931660472,0.13449950639480832,-0.09957444344926925,0.09673617976653591,-0.09079609434561373,-0.11523028650664305,-0.16006618284022017,-0.04231753076555098,-0.15410124344288958,-0.07937028660213778,-0.10400493821947607,0.08905213234888662,0.07006246980754968,0.18125714226057432,0.00982705981091902,-0.09322360102394883,0.14646977834192673,0.153067689963736,-0.10252589744570992,0.07502542630878088,-0.10415421288796878,0.09625544022651723,-0.06796480799880392,0.03508765102674728,0.08310972550337156,0.12930798068629604,-0.043303630926998335,-0.12212716869219638,0.09535531500258185,-0.08007475986011646,0.13603768631911112,0.15157716715728162,0.0681316614514135,-0.059693395684479324,-0.10332222423448649,-0.007848022584607725,-0.09870585006760957,-0.09859148082966314,-0.11140181500162352,-0.1527657943501188,-0.07161571227714225,0.09198823151595646,-0.00749276123949281,0.18601404361508256,-0.1402944770463837,-0.03774637243277248,0.17743636135446267,-0.10221874259289858,-0.14681636133623377,-0.080952097693686,0.00998021325509597,-0.006719917304636823,0.0971541167282712,-0.07328103927256044,0.06878961842209634,0.10472634688957252,0.11125986782456151,-0.09396084687493025,0.10263841904031346,-0.09438000781580096,0.180118165957098,0.05529706592041424,-0.05200682928133351,0.13873069783222697,0.15361069017766654,0.1275695494304922,-0.06872292373566172,-0.08941764337868374,-0.1754233598474863,-0.09994431410595392,-0.09787604298695393,-0.09516237092097288,0.0932019570196979,0.09412994544881495,-0.15058854376183287,0.07497962278143382,0.15234508717636364,-0.11938422392485819,-0.10584845084412195,0.08642172483209397,-0.09928114828543752,-0.09847579556966396,-0.06913851115360276,-0.11326706454983568,-0.03100189202943694,-0.08472631801650247,-0.06834159283689092,-0.11710158402827786,0.0021894366079007388,-0.10708905603096208,-0.0726807781632253,0.116109154137006,-0.10227799744838846,0.05009086217733263,0.12436959059348622,-0.1238060430331378,0.13149964069891878,-0.1173907338110662,0.08741292309912224,0.15209104316214583,0.1024432286886026,-0.0040921735254227706,0.07751942597261906,-0.013508490940822317,-0.10637558484954786,0.021590369656492917,0.14620208784901004,-0.11301186241207843,-0.1049606693446083,-0.09145261195815742,-0.08502359673752354,-0.14933956814574878,-0.08260288774670485,-0.12238674904162802,-0.1140379193068227,0.15103483207282328,0.06275257612985537,-0.10472657520821449,0.15866582263945891,0.14726803302809133,0.061750921600929834,0.052209551788734467,-0.10500234607058685,0.1256715511381097,-0.0850681037492147,-0.07016143450848121,-0.09871420203603307,-0.0978086275971258,-0.09940402188199936,-0.08832099430022797,0.069135692773974,-0.07009171628992798,0.06943845751987204,0.07898148393052726,0.08941127139694202,0.12255006145213401,0.10550847028734504,-0.05769470145113065,-0.08775888103748533,-0.029863146846039655,-0.08172355558842771,-0.07623600885035883,0.16639014423005688,0.09737213204617363,-0.11342832457905191,0.09581738145679349,-0.07248995378659626,0.12473470600079532,0.07446217024280491,0.11088671809329229,-0.07797841348558013,-0.049682858958968776,0.09973965785733516,0.07317418561260396,-0.1117260845369932,-0.11468543586283224,0.22341729048662148,0.10769069651402688,-0.08776900287678345,-0.07866227124882587,0.08931884936839407,0.11180380917521479,-0.05897939605408185,0.14445671132173676,-0.06430851924943297,-0.08095836881611532,-0.004111636482450593,-0.0024011436608392263,0.21009288887828254,0.03675048247874154,-0.10339174115839203,-0.05446631354191321,0.12117093203384541,-0.11374213733476765,0.21922274478516207,0.11397285223798248,-0.16525166880781786,-0.09953915806470534,0.0778152943612305,0.0775221493034299,0.177557061850933,0.07198869886205993,-0.09966904013473414,-0.08356441643781037,-0.06900751441328927,0.08802296636722577,-0.0968243908218046,0.09505969959050478,-0.09314125731620439,-0.05222871499774553,-0.111875778407451,-0.09477873934418062,-0.20035992003476935,-0.10758736137985787,0.11447390122648445,0.04618097355418762,0.024572882000941786,0.0996392105502026,-0.08923720694513586,-0.14227776686410512,-0.08526958553714295,0.13963251192264184,0.09907703056738267,-0.1389021127707411,-0.11156935588302068,0.10321838277086563,0.14970678068784152,0.10213346997615558,-0.11643084337825704,-0.08037486897974687,0.04698571722495916,-0.09098745821397393,0.1092244961474101,-0.08213656220350965,-0.016309957039574094,-0.10051987300929706,-0.09880787682011141,-0.09342963396113127,-0.10142130187945649,-0.10732344941557903,-0.08188191976001598,-0.07612927596964278,-0.07399315685537178,-0.10254086922213476,-0.08945996836724943,-0.11673185602284689,0.12815028510744977,0.09702548870292915,-0.0992878398561912,0.13468773252861146,-0.10076567640897957,-0.09255882095422417,-0.10378233164791222,0.017250946219280867,0.03255128046835522,-0.051095558562235466,-0.06727409582664742,-0.03329527714303397,-0.02672426455886593,0.008552974002206821,-0.11297491462526658,0.04832977257912857,-0.04005292877731429,-0.03831630126610913,-0.03253082985426077,0.09881480599135986,-0.1255153944063946,0.04176510306896216,0.12192901043305157,0.05218924259874112,0.06958407035338379,0.10939003494220631,-0.14177636180463055,0.08337561753679129,-0.07588057122260043,-0.10939425616347198,-0.09143460989488798,-0.06345806907248557,0.1314623676355859,0.10091129432689902,-0.1532025241271385,-0.127340587523029,-0.13587063097305613,0.06037977159323066,0.15835179199698055,0.06519117037628316,-0.11580154370612879,-0.08345426189766454,0.052982003937296004,-0.11169331544919561,-0.12369174147316823,0.10269853971648005,0.0973736905334127,-0.040073805903733474,-0.07188074519542749,-0.1803299821308219,-0.09726773083146671,0.10225868654020472,-0.06733006676442324,-0.11574900817924214,-0.09423428577920326,-0.08454787718743353,-0.03799826657717838,-0.08916442733899019,-0.0944623374342578,-0.10144945717654344,-0.03276343916177675,-0.08344033230818242,-0.013072883470451399,-0.1192718701350173,-0.07955164631717725,-0.10811901771610788,-0.03742955963459087,0.18029036474195587,-0.07239478633331578,0.09274305525104182,-0.09332078980761507,-0.1012874231749062,0.12525763300050713,0.16435573120830765,-0.047873113674378936,0.08361912599197129,-0.04874590209775352,-0.04423652213397849,0.07685824522556012,-0.12454695760372134,0.06648844864072097,-0.12122989398118574,-0.170498400389902,0.11486518887487931,0.014666274443584487,-0.0872896869372807,-0.08542917286094205,0.15458411957401588,-0.04838328234200603,-0.1463734447887455,0.17287974727197525,0.058208119006195956,0.007891606011679075,0.12024430114461974,-0.08479985752423658,-0.1011335258925639,0.09944595661252156,-0.07233732296594023,-0.10995447760085238,0.10459927225381482,0.09670847349502089,-0.11019366122272747,0.12681779438452365,0.10512411852139728,-0.07806950549815334,0.09982256399225424,0.08756141615879302,-0.056956276353126924,-0.08141361955762502,-0.12301737791189638,-0.09702995153694156,0.06345915584463425,-0.05065576113732865,0.08008756384413247,0.045817399865669774,-0.1074081694672491,-0.09809856244497017,-0.09859043125319976
6,ShopFacade,test,seq3,ShopFacade/seq3/frame00007.png,-10.064691,-8.232509,1.876426,0.6400819999999999,0.6538109999999999,-0.285512,0.285148,1,-0.1064741914189667,-0.07184228102326146,0.10113443486516223,3,0.007510909172597988,0.08366779975650082,0.10255689797305725,-0.22826327618289413,0.011296181583909154,-0.022231831701720335,0.06488980950409141,-0.10406333867367386,0.1465827368274913,0.07178396817890616,0.08927880192017891,0.10801674625461233,-0.14112698086539538,-0.09705752466119913,-0.09877519149292668,-0.15597410221048713,0.08683646250327999,0.09147649105698746,-0.09439181765013552,-0.054592655365294826,-0.04184390685254487,-0.1807455730444734,-0.056849130135993894,0.11019395467187469,-0.09629330651832504,-0.15517294708943138,-0.0721074175808442,-0.12508934854964815,-0.09816938027767301,-0.09870056375083495,-0.09676103276527091,-0.11061424446225568,-0.10212108817831009,0.04325116024597138,-0.10854321526143065,0.09925205044743454,0.1372229255873683,0.12752168728794708,-0.07133627084497463,-0.01835875835692912,-0.005218490909852431,-0.1236396261065971,0.11677939745279005,-0.09661828931660472,0.13449950639480832,-0.09957444344926925,0.09673617976653591,-0.09079609434561373,-0.11523028650664305,-0.16006618284022017,-0.04231753076555098,-0.15410124344288958,-0.07937028660213778,-0.10400493821947607,0.08905213234888662,0.07006246980754968,0.18125714226057432,0.00982705981091902,-0.09322360102394883,0.14646977834192673,0.153067689963736,-0.10252589744570992,0.07502542630878088,-0.10415421288796878,0.09625544022651723,-0.06796480799880392,0.03508765102674728,0.08310972550337156,0.12930798068629604,-0.043303630926998335,-0.12212716869219638,0.09535531500258185,-0.08007475986011646,0.13603768631911112,0.15157716715728162,0.0681316614514135,-0.059693395684479324,-0.10332222423448649,-0.007848022584607725,-0.09870585006760957,-0.09859148082966314,-0.11140181500162352,-0.1527657943501188,-0.07161571227714225,0.09198823151595646,-0.00749276123949281,0.18601404361508256,-0.1402944770463837,-0.03774637243277248,0.17743636135446267,-0.10221874259289858,-0.14681636133623377,-0.080952097693686,0.00998021325509597,-0.006719917304636823,0.0971541167282712,-0.07328103927256044,0.06878961842209634,0.10472634688957252,0.11125986782456151,-0.09396084687493025,0.10263841904031346,-0.09438000781580096,0.180118165957098,0.05529706592041424,-0.05200682928133351,0.13873069783222697,0.15361069017766654,0.1275695494304922,-0.06872292373566172,-0.08941764337868374,-0.1754233598474863,-0.09994431410595392,-0.09787604298695393,-0.09516237092097288,0.0932019570196979,0.09412994544881495,-0.15058854376183287,0.07497962278143382,0.15234508717636364,-0.11938422392485819,-0.10584845084412195,0.08642172483209397,-0.09928114828543752,-0.09847579556966396,-0.06913851115360276,-0.11326706454983568,-0.03100189202943694,-0.08472631801650247,-0.06834159283689092,-0.11710158402827786,0.0021894366079007388,-0.10708905603096208,-0.0726807781632253,0.116109154137006,-0.10227799744838846,0.05009086217733263,0.12436959059348622,-0.1238060430331378,0.13149964069891878,-0.1173907338110662,0.08741292309912224,0.15209104316214583,0.1024432286886026,-0.0040921735254227706,0.07751942597261906,-0.013508490940822317,-0.10637558484954786,0.021590369656492917,0.14620208784901004,-0.11301186241207843,-0.1049606693446083,-0.09145261195815742,-0.08502359673752354,-0.14933956814574878,-0.08260288774670485,-0.12238674904162802,-0.1140379193068227,0.15103483207282328,0.06275257612985537,-0.10472657520821449,0.15866582263945891,0.14726803302809133,0.061750921600929834,0.052209551788734467,-0.10500234607058685,0.1256715511381097,-0.0850681037492147,-0.07016143450848121,-0.09871420203603307,-0.0978086275971258,-0.09940402188199936,-0.08832099430022797,0.069135692773974,-0.07009171628992798,0.06943845751987204,0.07898148393052726,0.08941127139694202,0.12255006145213401,0.10550847028734504,-0.05769470145113065,-0.08775888103748533,-0.029863146846039655,-0.08172355558842771,-0.07623600885035883,0.16639014423005688,0.09737213204617363,-0.11342832457905191,0.09581738145679349,-0.07248995378659626,0.12473470600079532,0.07446217024280491,0.11088671809329229,-0.07797841348558013,-0.049682858958968776,0.09973965785733516,0.07317418561260396,-0.1117260845369932,-0.11468543586283224,0.22341729048662148,0.10769069651402688,-0.08776900287678345,-0.07866227124882587,0.08931884936839407,0.11180380917521479,-0.05897939605408185,0.14445671132173676,-0.06430851924943297,-0.08095836881611532,-0.004111636482450593,-0.0024011436608392263,0.21009288887828254,0.03675048247874154,-0.10339174115839203,-0.05446631354191321,0.12117093203384541,-0.11374213733476765,0.21922274478516207,0.11397285223798248,-0.16525166880781786,-0.09953915806470534,0.0778152943612305,0.0775221493034299,0.177557061850933,0.07198869886205993,-0.09966904013473414,-0.08356441643781037,-0.06900751441328927,0.08802296636722577,-0.0968243908218046,0.09505969959050478,-0.09314125731620439,-0.05222871499774553,-0.111875778407451,-0.09477873934418062,-0.20035992003476935,-0.10758736137985787,0.11447390122648445,0.04618097355418762,0.024572882000941786,0.0996392105502026,-0.08923720694513586,-0.14227776686410512,-0.08526958553714295,0.13963251192264184,0.09907703056738267,-0.1389021127707411,-0.11156935588302068,0.10321838277086563,0.14970678068784152,0.10213346997615558,-0.11643084337825704,-0.08037486897974687,0.04698571722495916,-0.09098745821397393,0.1092244961474101,-0.08213656220350965,-0.016309957039574094,-0.10051987300929706,-0.09880787682011141,-0.09342963396113127,-0.10142130187945649,-0.10732344941557903,-0.08188191976001598,-0.07612927596964278,-0.07399315685537178,-0.10254086922213476,-0.08945996836724943,-0.11673185602284689,0.12815028510744977,0.09702548870292915,-0.0992878398561912,0.13468773252861146,-0.10076567640897957,-0.09255882095422417,-0.10378233164791222,0.017250946219280867,0.03255128046835522,-0.051095558562235466,-0.06727409582664742,-0.03329527714303397,-0.02672426455886593,0.008552974002206821,-0.11297491462526658,0.04832977257912857,-0.04005292877731429,-0.03831630126610913,-0.03253082985426077,0.09881480599135986,-0.1255153944063946,0.04176510306896216,0.12192901043305157,0.05218924259874112,0.06958407035338379,0.10939003494220631,-0.14177636180463055,0.08337561753679129,-0.07588057122260043,-0.10939425616347198,-0.09143460989488798,-0.06345806907248557,0.1314623676355859,0.10091129432689902,-0.1532025241271385,-0.127340587523029,-0.13587063097305613,0.06037977159323066,0.15835179199698055,0.06519117037628316,-0.11580154370612879,-0.08345426189766454,0.052982003937296004,-0.11169331544919561,-0.12369174147316823,0.10269853971648005,0.0973736905334127,-0.040073805903733474,-0.07188074519542749,-0.1803299821308219,-0.09726773083146671,0.10225868654020472,-0.06733006676442324,-0.11574900817924214,-0.09423428577920326,-0.08454787718743353,-0.03799826657717838,-0.08916442733899019,-0.0944623374342578,-0.10144945717654344,-0.03276343916177675,-0.08344033230818242,-0.013072883470451399,-0.1192718701350173,-0.07955164631717725,-0.10811901771610788,-0.03742955963459087,0.18029036474195587,-0.07239478633331578,0.09274305525104182,-0.09332078980761507,-0.1012874231749062,0.12525763300050713,0.16435573120830765,-0.047873113674378936,0.08361912599197129,-0.04874590209775352,-0.04423652213397849,0.07685824522556012,-0.12454695760372134,0.06648844864072097,-0.12122989398118574,-0.170498400389902,0.11486518887487931,0.014666274443584487,-0.0872896869372807,-0.08542917286094205,0.15458411957401588,-0.04838328234200603,-0.1463734447887455,0.17287974727197525,0.058208119006195956,0.007891606011679075,0.12024430114461974,-0.08479985752423658,-0.1011335258925639,0.09944595661252156,-0.07233732296594023,-0.10995447760085238,0.10459927225381482,0.09670847349502089,-0.11019366122272747,0.12681779438452365,0.10512411852139728,-0.07806950549815334,0.09982256399225424,0.08756141615879302,-0.056956276353126924,-0.08141361955762502,-0.12301737791189638,-0.09702995153694156,0.06345915584463425,-0.05065576113732865,0.08008756384413247,0.045817399865669774,-0.1074081694672491,-0.09809856244497017,-0.09859043125319976
7,ShopFacade,test,seq3,ShopFacade/seq3/frame00008.png,-9.204425,-8.325952000000001,1.865559,0.658794,0.642352,-0.265608,0.2877949999999999,1,-0.1064741914189667,-0.07184228102326146,0.10113443486516223,3,0.007510909172597988,0.08366779975650082,0.10255689797305725,-0.22826327618289413,0.011296181583909154,-0.022231831701720335,0.06488980950409141,-0.10406333867367386,0.1465827368274913,0.07178396817890616,0.08927880192017891,0.10801674625461233,-0.14112698086539538,-0.09705752466119913,-0.09877519149292668,-0.15597410221048713,0.08683646250327999,0.09147649105698746,-0.09439181765013552,-0.054592655365294826,-0.04184390685254487,-0.1807455730444734,-0.056849130135993894,0.11019395467187469,-0.09629330651832504,-0.15517294708943138,-0.0721074175808442,-0.12508934854964815,-0.09816938027767301,-0.09870056375083495,-0.09676103276527091,-0.11061424446225568,-0.10212108817831009,0.04325116024597138,-0.10854321526143065,0.09925205044743454,0.1372229255873683,0.12752168728794708,-0.07133627084497463,-0.01835875835692912,-0.005218490909852431,-0.1236396261065971,0.11677939745279005,-0.09661828931660472,0.13449950639480832,-0.09957444344926925,0.09673617976653591,-0.09079609434561373,-0.11523028650664305,-0.16006618284022017,-0.04231753076555098,-0.15410124344288958,-0.07937028660213778,-0.10400493821947607,0.08905213234888662,0.07006246980754968,0.18125714226057432,0.00982705981091902,-0.09322360102394883,0.14646977834192673,0.153067689963736,-0.10252589744570992,0.07502542630878088,-0.10415421288796878,0.09625544022651723,-0.06796480799880392,0.03508765102674728,0.08310972550337156,0.12930798068629604,-0.043303630926998335,-0.12212716869219638,0.09535531500258185,-0.08007475986011646,0.13603768631911112,0.15157716715728162,0.0681316614514135,-0.059693395684479324,-0.10332222423448649,-0.007848022584607725,-0.09870585006760957,-0.09859148082966314,-0.11140181500162352,-0.1527657943501188,-0.07161571227714225,0.09198823151595646,-0.00749276123949281,0.18601404361508256,-0.1402944770463837,-0.03774637243277248,0.17743636135446267,-0.10221874259289858,-0.14681636133623377,-0.080952097693686,0.00998021325509597,-0.006719917304636823,0.0971541167282712,-0.07328103927256044,0.06878961842209634,0.10472634688957252,0.11125986782456151,-0.09396084687493025,0.10263841904031346,-0.09438000781580096,0.180118165957098,0.05529706592041424,-0.05200682928133351,0.13873069783222697,0.15361069017766654,0.1275695494304922,-0.06872292373566172,-0.08941764337868374,-0.1754233598474863,-0.09994431410595392,-0.09787604298695393,-0.09516237092097288,0.0932019570196979,0.09412994544881495,-0.15058854376183287,0.07497962278143382,0.15234508717636364,-0.11938422392485819,-0.10584845084412195,0.08642172483209397,-0.09928114828543752,-0.09847579556966396,-0.06913851115360276,-0.11326706454983568,-0.03100189202943694,-0.08472631801650247,-0.06834159283689092,-0.11710158402827786,0.0021894366079007388,-0.10708905603096208,-0.0726807781632253,0.116109154137006,-0.10227799744838846,0.05009086217733263,0.12436959059348622,-0.1238060430331378,0.13149964069891878,-0.1173907338110662,0.08741292309912224,0.15209104316214583,0.1024432286886026,-0.0040921735254227706,0.07751942597261906,-0.013508490940822317,-0.10637558484954786,0.021590369656492917,0.14620208784901004,-0.11301186241207843,-0.1049606693446083,-0.09145261195815742,-0.08502359673752354,-0.14933956814574878,-0.08260288774670485,-0.12238674904162802,-0.1140379193068227,0.15103483207282328,0.06275257612985537,-0.10472657520821449,0.15866582263945891,0.14726803302809133,0.061750921600929834,0.052209551788734467,-0.10500234607058685,0.1256715511381097,-0.0850681037492147,-0.07016143450848121,-0.09871420203603307,-0.0978086275971258,-0.09940402188199936,-0.08832099430022797,0.069135692773974,-0.07009171628992798,0.06943845751987204,0.07898148393052726,0.08941127139694202,0.12255006145213401,0.10550847028734504,-0.05769470145113065,-0.08775888103748533,-0.029863146846039655,-0.08172355558842771,-0.07623600885035883,0.16639014423005688,0.09737213204617363,-0.11342832457905191,0.09581738145679349,-0.07248995378659626,0.12473470600079532,0.07446217024280491,0.11088671809329229,-0.07797841348558013,-0.049682858958968776,0.09973965785733516,0.07317418561260396,-0.1117260845369932,-0.11468543586283224,0.22341729048662148,0.10769069651402688,-0.08776900287678345,-0.07866227124882587,0.08931884936839407,0.11180380917521479,-0.05897939605408185,0.14445671132173676,-0.06430851924943297,-0.08095836881611532,-0.004111636482450593,-0.0024011436608392263,0.21009288887828254,0.03675048247874154,-0.10339174115839203,-0.05446631354191321,0.12117093203384541,-0.11374213733476765,0.21922274478516207,0.11397285223798248,-0.16525166880781786,-0.09953915806470534,0.0778152943612305,0.0775221493034299,0.177557061850933,0.07198869886205993,-0.09966904013473414,-0.08356441643781037,-0.06900751441328927,0.08802296636722577,-0.0968243908218046,0.09505969959050478,-0.09314125731620439,-0.05222871499774553,-0.111875778407451,-0.09477873934418062,-0.20035992003476935,-0.10758736137985787,0.11447390122648445,0.04618097355418762,0.024572882000941786,0.0996392105502026,-0.08923720694513586,-0.14227776686410512,-0.08526958553714295,0.13963251192264184,0.09907703056738267,-0.1389021127707411,-0.11156935588302068,0.10321838277086563,0.14970678068784152,0.10213346997615558,-0.11643084337825704,-0.08037486897974687,0.04698571722495916,-0.09098745821397393,0.1092244961474101,-0.08213656220350965,-0.016309957039574094,-0.10051987300929706,-0.09880787682011141,-0.09342963396113127,-0.10142130187945649,-0.10732344941557903,-0.08188191976001598,-0.07612927596964278,-0.07399315685537178,-0.10254086922213476,-0.08945996836724943,-0.11673185602284689,0.12815028510744977,0.09702548870292915,-0.0992878398561912,0.13468773252861146,-0.10076567640897957,-0.09255882095422417,-0.10378233164791222,0.017250946219280867,0.03255128046835522,-0.051095558562235466,-0.06727409582664742,-0.03329527714303397,-0.02672426455886593,0.008552974002206821,-0.11297491462526658,0.04832977257912857,-0.04005292877731429,-0.03831630126610913,-0.03253082985426077,0.09881480599135986,-0.1255153944063946,0.04176510306896216,0.12192901043305157,0.05218924259874112,0.06958407035338379,0.10939003494220631,-0.14177636180463055,0.08337561753679129,-0.07588057122260043,-0.10939425616347198,-0.09143460989488798,-0.06345806907248557,0.1314623676355859,0.10091129432689902,-0.1532025241271385,-0.127340587523029,-0.13587063097305613,0.06037977159323066,0.15835179199698055,0.06519117037628316,-0.11580154370612879,-0.08345426189766454,0.052982003937296004,-0.11169331544919561,-0.12369174147316823,0.10269853971648005,0.0973736905334127,-0.040073805903733474,-0.07188074519542749,-0.1803299821308219,-0.09726773083146671,0.10225868654020472,-0.06733006676442324,-0.11574900817924214,-0.09423428577920326,-0.08454787718743353,-0.03799826657717838,-0.08916442733899019,-0.0944623374342578,-0.10144945717654344,-0.03276343916177675,-0.08344033230818242,-0.013072883470451399,-0.1192718701350173,-0.07955164631717725,-0.10811901771610788,-0.03742955963459087,0.18029036474195587,-0.07239478633331578,0.09274305525104182,-0.09332078980761507,-0.1012874231749062,0.12525763300050713,0.16435573120830765,-0.047873113674378936,0.08361912599197129,-0.04874590209775352,-0.04423652213397849,0.07685824522556012,-0.12454695760372134,0.06648844864072097,-0.12122989398118574,-0.170498400389902,0.11486518887487931,0.014666274443584487,-0.0872896869372807,-0.08542917286094205,0.15458411957401588,-0.04838328234200603,-0.1463734447887455,0.17287974727197525,0.058208119006195956,0.007891606011679075,0.12024430114461974,-0.08479985752423658,-0.1011335258925639,0.09944595661252156,-0.07233732296594023,-0.10995447760085238,0.10459927225381482,0.09670847349502089,-0.11019366122272747,0.12681779438452365,0.10512411852139728,-0.07806950549815334,0.09982256399225424,0.08756141615879302,-0.056956276353126924,-0.08141361955762502,-0.12301737791189638,-0.09702995153694156,0.06345915584463425,-0.05065576113732865,0.08008756384413247,0.045817399865669774,-0.1074081694672491,-0.09809856244497017,-0.09859043125319976
8,ShopFacade,test,seq3,ShopFacade/seq3/frame00009.png,-8.482593,-8.158344999999999,1.839166,0.670417,0.654995,-0.22983,0.262106,1,-0.1064741914189667,-0.07184228102326146,0.10113443486516223,3,0.007510909172597988,0.08366779975650082,0.10255689797305725,-0.22826327618289413,0.011296181583909154,-0.022231831701720335,0.06488980950409141,-0.10406333867367386,0.1465827368274913,0.07178396817890616,0.08927880192017891,0.10801674625461233,-0.14112698086539538,-0.09705752466119913,-0.09877519149292668,-0.15597410221048713,0.08683646250327999,0.09147649105698746,-0.09439181765013552,-0.054592655365294826,-0.04184390685254487,-0.1807455730444734,-0.056849130135993894,0.11019395467187469,-0.09629330651832504,-0.15517294708943138,-0.0721074175808442,-0.12508934854964815,-0.09816938027767301,-0.09870056375083495,-0.09676103276527091,-0.11061424446225568,-0.10212108817831009,0.04325116024597138,-0.10854321526143065,0.09925205044743454,0.1372229255873683,0.12752168728794708,-0.07133627084497463,-0.01835875835692912,-0.005218490909852431,-0.1236396261065971,0.11677939745279005,-0.09661828931660472,0.13449950639480832,-0.09957444344926925,0.09673617976653591,-0.09079609434561373,-0.11523028650664305,-0.16006618284022017,-0.04231753076555098,-0.15410124344288958,-0.07937028660213778,-0.10400493821947607,0.08905213234888662,0.07006246980754968,0.18125714226057432,0.00982705981091902,-0.09322360102394883,0.14646977834192673,0.153067689963736,-0.10252589744570992,0.07502542630878088,-0.10415421288796878,0.09625544022651723,-0.06796480799880392,0.03508765102674728,0.08310972550337156,0.12930798068629604,-0.043303630926998335,-0.12212716869219638,0.09535531500258185,-0.08007475986011646,0.13603768631911112,0.15157716715728162,0.0681316614514135,-0.059693395684479324,-0.10332222423448649,-0.007848022584607725,-0.09870585006760957,-0.09859148082966314,-0.11140181500162352,-0.1527657943501188,-0.07161571227714225,0.09198823151595646,-0.00749276123949281,0.18601404361508256,-0.1402944770463837,-0.03774637243277248,0.17743636135446267,-0.10221874259289858,-0.14681636133623377,-0.080952097693686,0.00998021325509597,-0.006719917304636823,0.0971541167282712,-0.07328103927256044,0.06878961842209634,0.10472634688957252,0.11125986782456151,-0.09396084687493025,0.10263841904031346,-0.09438000781580096,0.180118165957098,0.05529706592041424,-0.05200682928133351,0.13873069783222697,0.15361069017766654,0.1275695494304922,-0.06872292373566172,-0.08941764337868374,-0.1754233598474863,-0.09994431410595392,-0.09787604298695393,-0.09516237092097288,0.0932019570196979,0.09412994544881495,-0.15058854376183287,0.07497962278143382,0.15234508717636364,-0.11938422392485819,-0.10584845084412195,0.08642172483209397,-0.09928114828543752,-0.09847579556966396,-0.06913851115360276,-0.11326706454983568,-0.03100189202943694,-0.08472631801650247,-0.06834159283689092,-0.11710158402827786,0.0021894366079007388,-0.10708905603096208,-0.0726807781632253,0.116109154137006,-0.10227799744838846,0.05009086217733263,0.12436959059348622,-0.1238060430331378,0.13149964069891878,-0.1173907338110662,0.08741292309912224,0.15209104316214583,0.1024432286886026,-0.0040921735254227706,0.07751942597261906,-0.013508490940822317,-0.10637558484954786,0.021590369656492917,0.14620208784901004,-0.11301186241207843,-0.1049606693446083,-0.09145261195815742,-0.08502359673752354,-0.14933956814574878,-0.08260288774670485,-0.12238674904162802,-0.1140379193068227,0.15103483207282328,0.06275257612985537,-0.10472657520821449,0.15866582263945891,0.14726803302809133,0.061750921600929834,0.052209551788734467,-0.10500234607058685,0.1256715511381097,-0.0850681037492147,-0.07016143450848121,-0.09871420203603307,-0.0978086275971258,-0.09940402188199936,-0.08832099430022797,0.069135692773974,-0.07009171628992798,0.06943845751987204,0.07898148393052726,0.08941127139694202,0.12255006145213401,0.10550847028734504,-0.05769470145113065,-0.08775888103748533,-0.029863146846039655,-0.08172355558842771,-0.07623600885035883,0.16639014423005688,0.09737213204617363,-0.11342832457905191,0.09581738145679349,-0.07248995378659626,0.12473470600079532,0.07446217024280491,0.11088671809329229,-0.07797841348558013,-0.049682858958968776,0.09973965785733516,0.07317418561260396,-0.1117260845369932,-0.11468543586283224,0.22341729048662148,0.10769069651402688,-0.08776900287678345,-0.07866227124882587,0.08931884936839407,0.11180380917521479,-0.05897939605408185,0.14445671132173676,-0.06430851924943297,-0.08095836881611532,-0.004111636482450593,-0.0024011436608392263,0.21009288887828254,0.03675048247874154,-0.10339174115839203,-0.05446631354191321,0.12117093203384541,-0.11374213733476765,0.21922274478516207,0.11397285223798248,-0.16525166880781786,-0.09953915806470534,0.0778152943612305,0.0775221493034299,0.177557061850933,0.07198869886205993,-0.09966904013473414,-0.08356441643781037,-0.06900751441328927,0.08802296636722577,-0.0968243908218046,0.09505969959050478,-0.09314125731620439,-0.05222871499774553,-0.111875778407451,-0.09477873934418062,-0.20035992003476935,-0.10758736137985787,0.11447390122648445,0.04618097355418762,0.024572882000941786,0.0996392105502026,-0.08923720694513586,-0.14227776686410512,-0.08526958553714295,0.13963251192264184,0.09907703056738267,-0.1389021127707411,-0.11156935588302068,0.10321838277086563,0.14970678068784152,0.10213346997615558,-0.11643084337825704,-0.08037486897974687,0.04698571722495916,-0.09098745821397393,0.1092244961474101,-0.08213656220350965,-0.016309957039574094,-0.10051987300929706,-0.09880787682011141,-0.09342963396113127,-0.10142130187945649,-0.10732344941557903,-0.08188191976001598,-0.07612927596964278,-0.07399315685537178,-0.10254086922213476,-0.08945996836724943,-0.11673185602284689,0.12815028510744977,0.09702548870292915,-0.0992878398561912,0.13468773252861146,-0.10076567640897957,-0.09255882095422417,-0.10378233164791222,0.017250946219280867,0.03255128046835522,-0.051095558562235466,-0.06727409582664742,-0.03329527714303397,-0.02672426455886593,0.008552974002206821,-0.11297491462526658,0.04832977257912857,-0.04005292877731429,-0.03831630126610913,-0.03253082985426077,0.09881480599135986,-0.1255153944063946,0.04176510306896216,0.12192901043305157,0.05218924259874112,0.06958407035338379,0.10939003494220631,-0.14177636180463055,0.08337561753679129,-0.07588057122260043,-0.10939425616347198,-0.09143460989488798,-0.06345806907248557,0.1314623676355859,0.10091129432689902,-0.1532025241271385,-0.127340587523029,-0.13587063097305613,0.06037977159323066,0.15835179199698055,0.06519117037628316,-0.11580154370612879,-0.08345426189766454,0.052982003937296004,-0.11169331544919561,-0.12369174147316823,0.10269853971648005,0.0973736905334127,-0.040073805903733474,-0.07188074519542749,-0.1803299821308219,-0.09726773083146671,0.10225868654020472,-0.06733006676442324,-0.11574900817924214,-0.09423428577920326,-0.08454787718743353,-0.03799826657717838,-0.08916442733899019,-0.0944623374342578,-0.10144945717654344,-0.03276343916177675,-0.08344033230818242,-0.013072883470451399,-0.1192718701350173,-0.07955164631717725,-0.10811901771610788,-0.03742955963459087,0.18029036474195587,-0.07239478633331578,0.09274305525104182,-0.09332078980761507,-0.1012874231749062,0.12525763300050713,0.16435573120830765,-0.047873113674378936,0.08361912599197129,-0.04874590209775352,-0.04423652213397849,0.07685824522556012,-0.12454695760372134,0.06648844864072097,-0.12122989398118574,-0.170498400389902,0.11486518887487931,0.014666274443584487,-0.0872896869372807,-0.08542917286094205,0.15458411957401588,-0.04838328234200603,-0.1463734447887455,0.17287974727197525,0.058208119006195956,0.007891606011679075,0.12024430114461974,-0.08479985752423658,-0.1011335258925639,0.09944595661252156,-0.07233732296594023,-0.10995447760085238,0.10459927225381482,0.09670847349502089,-0.11019366122272747,0.12681779438452365,0.10512411852139728,-0.07806950549815334,0.09982256399225424,0.08756141615879302,-0.056956276353126924,-0.08141361955762502,-0.12301737791189638,-0.09702995153694156,0.06345915584463425,-0.05065576113732865,0.08008756384413247,0.045817399865669774,-0.1074081694672491,-0.09809856244497017,-0.09859043125319976
9,ShopFacade,test,seq3,ShopFacade/seq3/frame00010.png,-7.821222,-7.883493,1.799984,0.669655,0.654646,-0.2480929999999999,0.247892,1,-0.1064741914189667,-0.07184228102326146,0.10113443486516223,3,0.007510909172597988,0.08366779975650082,0.10255689797305725,-0.22826327618289413,0.011296181583909154,-0.022231831701720335,0.06488980950409141,-0.10406333867367386,0.1465827368274913,0.07178396817890616,0.08927880192017891,0.10801674625461233,-0.14112698086539538,-0.09705752466119913,-0.09877519149292668,-0.15597410221048713,0.08683646250327999,0.09147649105698746,-0.09439181765013552,-0.054592655365294826,-0.04184390685254487,-0.1807455730444734,-0.056849130135993894,0.11019395467187469,-0.09629330651832504,-0.15517294708943138,-0.0721074175808442,-0.12508934854964815,-0.09816938027767301,-0.09870056375083495,-0.09676103276527091,-0.11061424446225568,-0.10212108817831009,0.04325116024597138,-0.10854321526143065,0.09925205044743454,0.1372229255873683,0.12752168728794708,-0.07133627084497463,-0.01835875835692912,-0.005218490909852431,-0.1236396261065971,0.11677939745279005,-0.09661828931660472,0.13449950639480832,-0.09957444344926925,0.09673617976653591,-0.09079609434561373,-0.11523028650664305,-0.16006618284022017,-0.04231753076555098,-0.15410124344288958,-0.07937028660213778,-0.10400493821947607,0.08905213234888662,0.07006246980754968,0.18125714226057432,0.00982705981091902,-0.09322360102394883,0.14646977834192673,0.153067689963736,-0.10252589744570992,0.07502542630878088,-0.10415421288796878,0.09625544022651723,-0.06796480799880392,0.03508765102674728,0.08310972550337156,0.12930798068629604,-0.043303630926998335,-0.12212716869219638,0.09535531500258185,-0.08007475986011646,0.13603768631911112,0.15157716715728162,0.0681316614514135,-0.059693395684479324,-0.10332222423448649,-0.007848022584607725,-0.09870585006760957,-0.09859148082966314,-0.11140181500162352,-0.1527657943501188,-0.07161571227714225,0.09198823151595646,-0.00749276123949281,0.18601404361508256,-0.1402944770463837,-0.03774637243277248,0.17743636135446267,-0.10221874259289858,-0.14681636133623377,-0.080952097693686,0.00998021325509597,-0.006719917304636823,0.0971541167282712,-0.07328103927256044,0.06878961842209634,0.10472634688957252,0.11125986782456151,-0.09396084687493025,0.10263841904031346,-0.09438000781580096,0.180118165957098,0.05529706592041424,-0.05200682928133351,0.13873069783222697,0.15361069017766654,0.1275695494304922,-0.06872292373566172,-0.08941764337868374,-0.1754233598474863,-0.09994431410595392,-0.09787604298695393,-0.09516237092097288,0.0932019570196979,0.09412994544881495,-0.15058854376183287,0.07497962278143382,0.15234508717636364,-0.11938422392485819,-0.10584845084412195,0.08642172483209397,-0.09928114828543752,-0.09847579556966396,-0.06913851115360276,-0.11326706454983568,-0.03100189202943694,-0.08472631801650247,-0.06834159283689092,-0.11710158402827786,0.0021894366079007388,-0.10708905603096208,-0.0726807781632253,0.116109154137006,-0.10227799744838846,0.05009086217733263,0.12436959059348622,-0.1238060430331378,0.13149964069891878,-0.1173907338110662,0.08741292309912224,0.15209104316214583,0.1024432286886026,-0.0040921735254227706,0.07751942597261906,-0.013508490940822317,-0.10637558484954786,0.021590369656492917,0.14620208784901004,-0.11301186241207843,-0.1049606693446083,-0.09145261195815742,-0.08502359673752354,-0.14933956814574878,-0.08260288774670485,-0.12238674904162802,-0.1140379193068227,0.15103483207282328,0.06275257612985537,-0.10472657520821449,0.15866582263945891,0.14726803302809133,0.061750921600929834,0.052209551788734467,-0.10500234607058685,0.1256715511381097,-0.0850681037492147,-0.07016143450848121,-0.09871420203603307,-0.0978086275971258,-0.09940402188199936,-0.08832099430022797,0.069135692773974,-0.07009171628992798,0.06943845751987204,0.07898148393052726,0.08941127139694202,0.12255006145213401,0.10550847028734504,-0.05769470145113065,-0.08775888103748533,-0.029863146846039655,-0.08172355558842771,-0.07623600885035883,0.16639014423005688,0.09737213204617363,-0.11342832457905191,0.09581738145679349,-0.07248995378659626,0.12473470600079532,0.07446217024280491,0.11088671809329229,-0.07797841348558013,-0.049682858958968776,0.09973965785733516,0.07317418561260396,-0.1117260845369932,-0.11468543586283224,0.22341729048662148,0.10769069651402688,-0.08776900287678345,-0.07866227124882587,0.08931884936839407,0.11180380917521479,-0.05897939605408185,0.14445671132173676,-0.06430851924943297,-0.08095836881611532,-0.004111636482450593,-0.0024011436608392263,0.21009288887828254,0.03675048247874154,-0.10339174115839203,-0.05446631354191321,0.12117093203384541,-0.11374213733476765,0.21922274478516207,0.11397285223798248,-0.16525166880781786,-0.09953915806470534,0.0778152943612305,0.0775221493034299,0.177557061850933,0.07198869886205993,-0.09966904013473414,-0.08356441643781037,-0.06900751441328927,0.08802296636722577,-0.0968243908218046,0.09505969959050478,-0.09314125731620439,-0.05222871499774553,-0.111875778407451,-0.09477873934418062,-0.20035992003476935,-0.10758736137985787,0.11447390122648445,0.04618097355418762,0.024572882000941786,0.0996392105502026,-0.08923720694513586,-0.14227776686410512,-0.08526958553714295,0.13963251192264184,0.09907703056738267,-0.1389021127707411,-0.11156935588302068,0.10321838277086563,0.14970678068784152,0.10213346997615558,-0.11643084337825704,-0.08037486897974687,0.04698571722495916,-0.09098745821397393,0.1092244961474101,-0.08213656220350965,-0.016309957039574094,-0.10051987300929706,-0.09880787682011141,-0.09342963396113127,-0.10142130187945649,-0.10732344941557903,-0.08188191976001598,-0.07612927596964278,-0.07399315685537178,-0.10254086922213476,-0.08945996836724943,-0.11673185602284689,0.12815028510744977,0.09702548870292915,-0.0992878398561912,0.13468773252861146,-0.10076567640897957,-0.09255882095422417,-0.10378233164791222,0.017250946219280867,0.03255128046835522,-0.051095558562235466,-0.06727409582664742,-0.03329527714303397,-0.02672426455886593,0.008552974002206821,-0.11297491462526658,0.04832977257912857,-0.04005292877731429,-0.03831630126610913,-0.03253082985426077,0.09881480599135986,-0.1255153944063946,0.04176510306896216,0.12192901043305157,0.05218924259874112,0.06958407035338379,0.10939003494220631,-0.14177636180463055,0.08337561753679129,-0.07588057122260043,-0.10939425616347198,-0.09143460989488798,-0.06345806907248557,0.1314623676355859,0.10091129432689902,-0.1532025241271385,-0.127340587523029,-0.13587063097305613,0.06037977159323066,0.15835179199698055,0.06519117037628316,-0.11580154370612879,-0.08345426189766454,0.052982003937296004,-0.11169331544919561,-0.12369174147316823,0.10269853971648005,0.0973736905334127,-0.040073805903733474,-0.07188074519542749,-0.1803299821308219,-0.09726773083146671,0.10225868654020472,-0.06733006676442324,-0.11574900817924214,-0.09423428577920326,-0.08454787718743353,-0.03799826657717838,-0.08916442733899019,-0.0944623374342578,-0.10144945717654344,-0.03276343916177675,-0.08344033230818242,-0.013072883470451399,-0.1192718701350173,-0.07955164631717725,-0.10811901771610788,-0.03742955963459087,0.18029036474195587,-0.07239478633331578,0.09274305525104182,-0.09332078980761507,-0.1012874231749062,0.12525763300050713,0.16435573120830765,-0.047873113674378936,0.08361912599197129,-0.04874590209775352,-0.04423652213397849,0.07685824522556012,-0.12454695760372134,0.06648844864072097,-0.12122989398118574,-0.170498400389902,0.11486518887487931,0.014666274443584487,-0.0872896869372807,-0.08542917286094205,0.15458411957401588,-0.04838328234200603,-0.1463734447887455,0.17287974727197525,0.058208119006195956,0.007891606011679075,0.12024430114461974,-0.08479985752423658,-0.1011335258925639,0.09944595661252156,-0.07233732296594023,-0.10995447760085238,0.10459927225381482,0.09670847349502089,-0.11019366122272747,0.12681779438452365,0.10512411852139728,-0.07806950549815334,0.09982256399225424,0.08756141615879302,-0.056956276353126924,-0.08141361955762502,-0.12301737791189638,-0.09702995153694156,0.06345915584463425,-0.05065576113732865,0.08008756384413247,0.045817399865669774,-0.1074081694672491,-0.09809856244497017,-0.09859043125319976
10,ShopFacade,test,seq3,ShopFacade/seq3/frame00011.png,-7.370363,-7.362491,1.76297,0.67593,0.645456,-0.2359099999999999,0.26618,1,-0.1064741914189667,-0.07184228102326146,0.10113443486516223,1,0.06690670202638081,0.09825817415355212,0.11893798648679935,-0.05267314177550753,0.0875146535222298,0.0447940037803516,0.0776856867591245,-0.08658527050177872,0.08284486240697032,0.027484799073395173,-0.06394490063468267,0.09487411849368106,-0.10020496200472193,-0.09815745982623496,-0.09860614428815777,0.0030986094175104993,-0.0197891422809826,0.09662909317260758,-0.09555617909625544,-0.09060146369231989,0.08218975913207342,-0.01710960253434468,-0.04847052858019042,0.10978824715703502,-0.09629805182636457,-0.09591917547179035,-0.10344346165359133,-0.11615081732217664,-0.09848980547927053,-0.09784553643039526,-0.09861919414157083,-0.06761838633293252,-0.09743833150290392,-0.026787574041285574,-0.09971737184450775,0.09618925020634758,0.10018116242508524,0.10056421621720195,-0.0771126755621991,-0.055465398696002435,-0.06755442298330067,-0.11306696757250845,0.10518782426880802,-0.0988521032005198,0.09971471088045732,-0.08810007206750937,0.0781899563577906,0.029062216481810715,-0.11103365301873087,0.0015078805114206292,-0.03201952531790102,-0.09765806773618248,-0.0862228449428774,-0.10169126651802543,0.10372874815346969,0.08013097012799851,0.056531182809166754,0.049530770408247785,-0.08897434530973017,0.09294306425077907,-0.05919324658195371,-0.04600993226869025,0.06340265038392173,-0.10344097497717823,-0.06511013297799574,-0.0765620468468654,0.07794927650216064,0.09244982285058667,0.08231909515770061,-0.09584889434287534,-0.08323758423270042,0.08924134634711899,-0.10466594715464052,0.08602595324565644,0.10118121128874139,0.12120644528213784,-0.09829845887975834,-0.10579348524920071,-0.0782085729355343,-0.09857644835207775,-0.09975688459099419,-0.0987094498349958,-0.09322792207016109,-0.07698934562594097,0.10868936528057711,-0.08997004153621133,0.10529496340553204,-0.10733469900078345,0.05910759642733677,0.08296652093924832,-0.1061089972599945,-0.08960703999898005,-0.08753381551700433,0.10710685579241425,-0.0643765773611267,0.0981754974946792,-0.09009076609060468,0.10616584645897192,-0.05943793371757582,0.08777873358256198,0.07769367310762926,0.10512695568243859,-0.10490881663694612,-0.0759037087305359,0.09287014791981726,-0.10900929320209997,0.09742117192134658,0.0942634674839207,0.02633211078039107,-0.09107588125371002,-0.09717708303416678,-0.0986837389915943,-0.09814181061880176,-0.09845707939399066,-0.09819672161971334,0.09488475959738296,0.09839846849144644,-0.08100419972489724,0.07205351973578322,0.0993548800579344,-0.0851699360981329,-0.09523622859587404,0.049338583227716094,-0.09971856920955686,-0.0936730028494811,-0.1080771384389596,-0.10406696552601617,0.0032115511020192116,-0.09868021282281149,0.03671965057737123,-0.1011353922396006,-0.110427613061274,-0.10018395667388585,-0.09660253132136008,0.09993600232887069,-0.0981955139859405,0.027760250946276856,0.08353838792579595,-0.1006848574164944,-0.0017593593870156108,-0.10518434212860689,0.05790349926090723,0.10927153737586652,0.1054891435252101,0.04175239178883715,0.08388861751508943,0.10221735143275426,-0.06527332783408975,-0.0004175770356779545,0.10114194016248904,-0.08552758466222267,-0.10164734657659874,-0.07620601786059154,-0.0848720970795527,-0.11149948800686367,-0.0999607016640233,-0.06800559694922788,-0.09662403921193582,0.058138165000208936,-0.07094269954154192,-0.10207795082976708,0.05492640416042134,0.08317651331130792,0.06660787492364352,-0.062341193662387995,-0.10704859908270567,0.06593850843446812,-0.032097640669858346,-0.08760225879910392,-0.09864835330279251,-0.09853639442534404,-0.09750531129864748,-0.10399026344569817,0.056534263652571824,-0.07013743921852246,0.09794174092019077,-0.047309152915918126,0.010280107793058282,0.013950435787869168,0.10533478572938501,-0.09855553563906608,-0.09616808117335547,-0.02965330143069318,-0.10046435044843177,-0.11892103533073059,0.08260859950394518,-0.019356331325970127,-0.11367616980494978,0.10317709764487655,-0.101488214032129,0.05753726330877083,0.09216754289826454,0.08716227255705582,-0.10198792945285454,-0.10608644557010741,0.08729801623684859,-0.029075540363309532,-0.07373765283676406,-0.10027468402617915,0.07075526298419106,0.09728872716579594,-0.0988168516612226,-0.09750312245194372,0.11842722759229378,0.055221445693258375,-0.040451588920416316,-0.03177961653654338,0.037521471920946854,-0.09502898569162041,0.052915887032679,-0.06752355220768338,0.08423003840729791,0.07379019620335343,-0.09762848481363899,0.010826099213141725,0.10348140719065389,-0.11217993894004831,0.07776927818257888,0.10259981196474814,-0.08258816817499977,-0.10639852523887147,0.11054076611128116,0.10807047941627215,-0.04450841000892721,0.10825742838134114,-0.0818207825582106,-0.11347883259613066,-0.08049209277949944,0.09641841304141109,-0.10226030714472656,0.09608235029262084,-0.10165371821399967,-0.08584335774762254,-0.10465707179386002,-0.0821233114434971,-0.08052786718927024,-0.09422363288595757,0.08764214909052777,0.09453484207323463,0.0850683728269875,0.09429394616269313,-0.09539814675577998,-0.08307293098041661,-0.09725059161652716,0.019562690760343296,0.09604924695390664,-0.08375950504099977,-0.10239800272742505,0.0822273794296684,0.10039930629914577,0.08821061799591941,-0.06099541195702162,-0.056136960198690126,0.10995456930137265,-0.06114240744907706,0.009447189237385235,-0.1001479614364804,-0.058659665706674906,-0.09968474431565998,-0.09845610967961202,-0.0976493075022918,-0.09973333965710059,-0.11424320554030125,-0.09966026551058768,-0.10044809790523257,-0.09748459061618203,-0.09938596624891483,-0.10033938492961146,0.016321451822505998,0.105440662193571,0.0502580421321332,-0.09984022085565515,0.0947291496210364,-0.0932485022028803,-0.0874120864834076,-0.09725399167851512,0.06832580114785879,-0.05917196100849061,-0.09792004830226247,-0.09831583522913696,-0.0864925584854401,-0.04732400519931698,0.06647746046893173,-0.1117851670845487,0.0841195418909886,-0.03135811331585148,-0.09745901568789186,0.09500611940559985,0.05999454559188852,-0.1014723509859028,0.09013814693261273,-0.052389100900177815,0.1086065899596169,0.08406823622862201,0.10724809782440027,-0.07060494733564722,-0.07396654103331766,-0.10039827269172687,-0.10401661744128582,-0.10702819779123215,-0.04488467354668164,0.08231778463032592,0.06309738224971718,-0.09228224755624355,-0.10496799469960537,-0.08696062494075396,-0.006379499440288762,0.08802672486539052,0.0860371115604171,0.036366839685416735,-0.10382790281182058,0.08609203781868745,0.03485008234335997,-0.09583876744338628,0.10373808356525731,0.10411669069341259,-0.07932598957877854,-0.09444066629024024,-0.05742012111693289,-0.09907193814852916,0.09972702331367611,-0.09358858609884495,-0.08997002540377952,-0.0877971335880937,-0.06868593567905074,-0.12972079232424297,-0.05162581243207406,-0.09848017636027563,-0.10619364666510978,0.0244352161286629,-0.06514347765648593,-0.07531902510612933,0.04681404918491437,-0.08910697781977549,-0.09255981878686466,-0.07090375321938985,0.04508553465073108,-0.08264089720997418,0.09964788678758477,-0.09550844046853614,-0.10456086108362933,0.11656684582462885,0.08786421864298151,-0.08901032254444216,0.10371355261130034,-0.07767525487761333,0.04573149475227156,0.08588887928080975,-0.10037726620409981,0.08997419334948992,-0.12216478566291702,-0.10135231980009557,0.09416794833808134,0.10965735341830907,-0.08854175327502767,-0.09086948690202284,0.09558518899860215,-0.07340709642812351,-0.10141892624899027,-0.007226298868609591,0.1077948330057214,-0.04555993004917568,0.08929998209945131,-0.09056591744774439,-0.10406328322908576,0.09502610844969668,-0.10464211131673103,-0.10310678098656399,0.06893797453684432,0.09059244230748839,-0.09118666598605489,0.08719236846384917,0.1052785547308016,-0.10177033676829077,0.09887723840862253,0.07586832859423,-0.1009375617253428,-0.08450390388858461,-0.07623378468891948,-0.0899323169028203,0.08611373104432102,-0.08837296590403776,-0.004462877086701668,0.0663761866843715,-0.10059836861921845,-0.09853366512470803,-0.098316026476801
